{"learner":{"attributes":{"scikit_learn":"{\"_estimator_type\": \"classifier\"}"},"feature_names":["original_0","original_1","original_2","original_3","original_4","original_5","original_6","original_7","original_8","original_9","original_10","original_11","original_12","original_13","original_14","original_15","original_16","original_17","original_18","original_19","original_20","original_21","original_22","original_23","original_24","original_25","original_26","original_27","original_28","original_29","fraud_recon_error","non_fraud_recon_error"],"feature_types":["float","float","float","float","float","float","float","float","float","float","float","float","float","float","float","float","float","float","float","float","float","float","float","float","float","float","float","float","float","float","float","float"],"gradient_booster":{"model":{"gbtree_model_param":{"num_parallel_tree":"1","num_trees":"100"},"iteration_indptr":[0,1,2,3,4,5,6,7,8,9,10,11,12,13,14,15,16,17,18,19,20,21,22,23,24,25,26,27,28,29,30,31,32,33,34,35,36,37,38,39,40,41,42,43,44,45,46,47,48,49,50,51,52,53,54,55,56,57,58,59,60,61,62,63,64,65,66,67,68,69,70,71,72,73,74,75,76,77,78,79,80,81,82,83,84,85,86,87,88,89,90,91,92,93,94,95,96,97,98,99,100],"tree_info":[0,0,0,0,0,0,0,0,0,0,0,0,0,0,0,0,0,0,0,0,0,0,0,0,0,0,0,0,0,0,0,0,0,0,0,0,0,0,0,0,0,0,0,0,0,0,0,0,0,0,0,0,0,0,0,0,0,0,0,0,0,0,0,0,0,0,0,0,0,0,0,0,0,0,0,0,0,0,0,0,0,0,0,0,0,0,0,0,0,0,0,0,0,0,0,0,0,0,0,0],"trees":[{"base_weights":[-8.800407E-1,6.4543123E0,-1.0966641E0,7.2397393E-1,9.6876955E-1,3.3057904E-1,-1.1065478E0,3.1120694E-1,-5.9748423E-1,-1.1247522E0,-8.1788397E-1,-7.470619E-2,-9.517885E-3,-9.517885E-3,-1.1256912E0,-9.5081335E-1,1.065889E0,-1.126632E0,-9.517885E-3,8.874314E-2,-9.9438864E-1,-3.1461152E-1,2.8872436E-1,-1.1275549E-1,-3.950363E-2,-2.1375554E-2,-1.04960814E-1,3.961263E-2,-7.299316E-2],"categories":[],"categories_nodes":[],"categories_segments":[],"categories_sizes":[],"default_left":[0,0,0,0,0,0,0,0,0,0,0,0,0,0,0,0,0,0,0,0,0,0,0,0,0,0,0,0,0],"id":0,"left_children":[1,3,5,-1,7,-1,9,-1,11,13,15,-1,-1,-1,17,19,21,23,-1,-1,25,27,-1,-1,-1,-1,-1,-1,-1],"loss_changes":[1.8128971E3,1.3409863E2,5.1732666E1,0E0,1.9505644E1,0E0,4.876831E0,0E0,2.201209E-1,8.934326E-1,1.831821E1,0E0,0E0,0E0,8.952637E-1,6.0954514E0,1.3546988E1,2.520752E-1,0E0,0E0,2.5363312E0,1.3993466E0,0E0,0E0,0E0,0E0,0E0,0E0,0E0],"parents":[2147483647,0,0,1,1,2,2,4,4,6,6,8,8,9,9,10,10,14,14,15,15,16,16,17,17,20,20,21,21],"right_children":[2,4,6,-1,8,-1,10,-1,12,14,16,-1,-1,-1,18,20,22,24,-1,-1,26,28,-1,-1,-1,-1,-1,-1,-1],"split_conditions":[-3.5017025E0,-1.7620344E0,-3.1720276E0,7.2397393E-1,2.2760154E-1,3.3057904E-1,2.4060123E0,3.1120694E-1,6.6493E4,-7.67406E0,1.5076883E0,-7.470619E-2,-9.517885E-3,-9.517885E-3,2.863233E0,-1.9548599E0,8.411797E-1,3.834649E0,-9.517885E-3,8.874314E-2,-1.8991613E0,-1.1551288E0,2.8872436E-1,-1.1275549E-1,-3.950363E-2,-2.1375554E-2,-1.04960814E-1,3.961263E-2,-7.299316E-2],"split_indices":[14,10,17,0,7,0,4,0,0,7,17,0,0,0,11,14,1,20,0,0,8,3,0,0,0,0,0,0,0],"split_type":[0,0,0,0,0,0,0,0,0,0,0,0,0,0,0,0,0,0,0,0,0,0,0,0,0,0,0,0,0],"sum_hessian":[1.1355983E3,3.1752115E1,1.1038462E3,2.7495491E1,4.256624E0,1.7256584E0,1.1021205E3,1.3805268E0,2.8760974E0,1.0340145E3,6.810599E1,1.8407023E0,1.035395E0,1.035395E0,1.0329791E3,6.4079445E1,4.0265365E0,1.0319437E3,1.035395E0,1.035395E0,6.3044052E1,2.7610536E0,1.2654828E0,1.030103E3,1.8407023E0,4.486712E0,5.8557343E1,1.035395E0,1.7256584E0],"tree_param":{"num_deleted":"0","num_feature":"32","num_nodes":"29","size_leaf_vector":"1"}},{"base_weights":[-8.556547E-1,3.7613118E0,-1.0746388E0,4.053958E-1,6.939073E-1,2.987533E0,-1.0918269E0,2.3722067E-1,-5.9425455E-1,3.918322E-1,-1.0006616E-2,-1.1070719E0,-7.1846795E-1,-7.4915886E-2,-7.373688E-3,-7.397863E-1,-1.1147074E0,-8.140715E-1,5.0995183E-1,3.5200843E-1,-8.865905E-1,-1.1166992E0,-5.3090376E-1,-8.802642E-1,6.6496365E-2,-7.172029E-2,1.9058819E-1,-6.53409E-2,1.2944739E-1,-9.7133376E-2,7.587573E-3,-8.7798E-2,-1.12157024E-1,-8.613679E-2,3.8425658E-2,-9.689413E-2,1.8900657E-2],"categories":[],"categories_nodes":[],"categories_segments":[],"categories_sizes":[],"default_left":[0,0,0,0,0,0,0,0,0,0,0,0,0,0,0,0,0,0,0,0,0,0,0,0,0,0,0,0,0,0,0,0,0,0,0,0,0],"id":1,"left_children":[1,3,5,-1,7,9,11,-1,13,-1,-1,15,17,-1,-1,19,21,23,25,27,29,31,33,35,-1,-1,-1,-1,-1,-1,-1,-1,-1,-1,-1,-1,-1],"loss_changes":[1.0896621E3,4.1033386E1,7.4892456E1,0E0,1.3215309E1,1.3584103E1,5.0234375E0,0E0,2.5834024E-1,0E0,0E0,1.9248047E0,5.4598007E0,0E0,0E0,3.9887724E0,5.217285E-1,4.5247345E0,7.7333097E0,4.100394E0,1.7460957E0,1.2487793E-1,1.8931035E0,3.875885E0,0E0,0E0,0E0,0E0,0E0,0E0,0E0,0E0,0E0,0E0,0E0,0E0,0E0],"parents":[2147483647,0,0,1,1,2,2,4,4,5,5,6,6,8,8,11,11,12,12,15,15,16,16,17,17,18,18,19,19,20,20,21,21,22,22,23,23],"right_children":[2,4,6,-1,8,10,12,-1,14,-1,-1,16,18,-1,-1,20,22,24,26,28,30,32,34,36,-1,-1,-1,-1,-1,-1,-1,-1,-1,-1,-1,-1,-1],"split_conditions":[-3.5017025E0,-1.7620344E0,-1.693419E0,4.053958E-1,2.2760154E-1,-1.1991062E0,1.4027141E0,2.3722067E-1,-2.9190853E-1,3.918322E-1,-1.0006616E-2,-1.565226E0,2.55E2,-7.4915886E-2,-7.373688E-3,-1.0834205E0,4.698405E0,5.411988E-1,-9.0058845E-1,-1.1762615E-1,4.8290107E-1,-1.6295288E0,1.2873718E0,1.4380958E0,6.6496365E-2,-7.172029E-2,1.9058819E-1,-6.53409E-2,1.2944739E-1,-9.7133376E-2,7.587573E-3,-8.7798E-2,-1.12157024E-1,-8.613679E-2,3.8425658E-2,-9.689413E-2,1.8900657E-2],"split_indices":[14,10,17,0,7,16,17,0,8,0,0,14,29,0,0,19,5,27,5,21,23,19,10,16,0,0,0,0,0,0,0,0,0,0,0,0,0],"split_type":[0,0,0,0,0,0,0,0,0,0,0,0,0,0,0,0,0,0,0,0,0,0,0,0,0,0,0,0,0,0,0,0,0,0,0,0,0],"sum_hessian":[1.0727633E3,4.784494E1,1.0249183E3,4.3384235E1,4.4607053E0,3.5902772E0,1.021328E3,1.5715916E0,2.8891134E0,2.551922E0,1.038355E0,9.793732E2,4.1954796E1,1.8879954E0,1.0011182E0,2.1939135E1,9.574341E2,3.923832E1,2.716476E0,2.4346483E0,1.9504486E1,9.5326886E2,4.1652584E0,3.794497E1,1.293352E0,1.7043818E0,1.0120943E0,1.3263776E0,1.1082706E0,1.791766E1,1.5868276E0,2.268656E1,9.305823E2,3.1034005E0,1.0618579E0,3.5125744E1,2.8192258E0],"tree_param":{"num_deleted":"0","num_feature":"32","num_nodes":"37","size_leaf_vector":"1"}},{"base_weights":[-8.3723944E-1,3.0337863E0,-1.0348271E0,3.0908543E-1,3.1126393E-2,8.686903E-1,-1.0642941E0,-8.4620667E-1,2.3277524E0,-1.0713775E0,3.5111573E-1,-9.546788E-2,-6.507059E-3,1.9483428E-2,2.675491E-1,-1.0873854E0,-6.9930315E-1,-3.951536E-1,1.5273865E-1,-1.0894938E0,-4.8432773E-1,-9.286168E-1,5.771892E-1,3.785159E-2,-7.707014E-2,-1.0915661E-1,-6.139769E-2,-8.292455E-2,3.879818E-2,3.4404088E-2,-9.806558E-2,-6.794494E-2,2.231315E-1],"categories":[],"categories_nodes":[],"categories_segments":[],"categories_sizes":[],"default_left":[0,0,0,0,0,0,0,0,0,0,0,0,0,0,0,0,0,0,0,0,0,0,0,0,0,0,0,0,0,0,0,0,0],"id":2,"left_children":[1,3,5,-1,-1,7,9,11,13,15,17,-1,-1,-1,-1,19,21,23,-1,25,27,29,31,-1,-1,-1,-1,-1,-1,-1,-1,-1,-1],"loss_changes":[7.628545E2,6.57193E0,5.3973877E1,0E0,0E0,3.942244E1,9.718384E0,5.8304596E-1,5.6748543E0,4.7634277E0,5.3377237E0,0E0,0E0,0E0,0E0,6.0046387E-1,1.2553892E1,1.4812777E0,0E0,2.0043945E-1,1.7935671E0,2.6677685E0,1.5794266E1,0E0,0E0,0E0,0E0,0E0,0E0,0E0,0E0,0E0,0E0],"parents":[2147483647,0,0,1,1,2,2,5,5,6,6,7,7,8,8,9,9,10,10,15,15,16,16,17,17,19,19,20,20,21,21,22,22],"right_children":[2,4,6,-1,-1,8,10,12,14,16,18,-1,-1,-1,-1,20,22,24,-1,26,28,30,32,-1,-1,-1,-1,-1,-1,-1,-1,-1,-1],"split_conditions":[-1.693419E0,-6.321074E-1,-2.1006665E0,3.0908543E-1,3.1126393E-2,9.905199E-1,4.747222E0,-4.652275E-1,-4.6020612E-2,1.4027141E0,1.7766923E-1,-9.546788E-2,-6.507059E-3,1.9483428E-2,2.675491E-1,8.929055E0,1.941409E0,3.7064695E-1,1.5273865E-1,1.1088973E0,3.9614806E-1,-2.4833965E0,9.82255E-1,3.785159E-2,-7.707014E-2,-1.0915661E-1,-6.139769E-2,-8.292455E-2,3.879818E-2,3.4404088E-2,-9.806558E-2,-6.794494E-2,2.231315E-1],"split_indices":[17,16,10,0,0,4,4,1,27,17,31,0,0,0,0,30,4,30,0,27,16,8,1,0,0,0,0,0,0,0,0,0,0],"split_type":[0,0,0,0,0,0,0,0,0,0,0,0,0,0,0,0,0,0,0,0,0,0,0,0,0,0,0,0,0,0,0,0,0],"sum_hessian":[9.92264E2,4.749111E1,9.447728E2,4.6383556E1,1.1075569E0,1.3968252E1,9.3080457E2,6.6142635E0,7.3539886E0,9.2641144E2,4.3931327E0,5.612693E0,1.0015708E0,1.2496036E0,6.104385E0,8.8635504E2,4.0056385E1,3.0941515E0,1.2989811E0,8.824632E2,3.891848E0,3.418737E1,5.8690166E0,1.0085416E0,2.08561E0,8.773443E2,5.1189356E0,2.8244193E0,1.0674288E0,1.1225773E0,3.3064793E1,3.6700904E0,2.1989262E0],"tree_param":{"num_deleted":"0","num_feature":"32","num_nodes":"33","size_leaf_vector":"1"}},{"base_weights":[-8.061642E-1,2.1616607E0,-1.027534E0,-6.6770226E-1,2.4316742E0,-1.0392541E0,7.6191247E-1,3.0505707E-2,-9.075118E-2,6.878549E-2,2.4806426E0,-1.0698019E0,-6.487034E-1,2.4302523E-1,-1.3566369E-1,1.011035E0,2.5272492E-1,-1.0754353E0,-6.9048816E-1,-8.4302163E-1,9.673233E-1,-8.1812285E-2,9.336564E-2,1.7202727E-2,1.3701542E-1,-3.7322443E-2,-1.0766242E-1,-1.0179631E-1,5.859481E-1,9.948979E-2,-9.177333E-1,-2.462674E-1,2.2490864E-1,1.8846223E-1,-6.766752E-2,-1.3381125E-2,-9.9416964E-2,9.207824E-2,-8.147017E-2],"categories":[],"categories_nodes":[],"categories_segments":[],"categories_sizes":[],"default_left":[0,0,0,0,0,0,0,0,0,0,0,0,0,0,0,0,0,0,0,0,0,0,0,0,0,0,0,0,0,0,0,0,0,0,0,0,0,0,0],"id":3,"left_children":[1,3,5,7,9,11,13,-1,-1,-1,15,17,19,-1,21,23,-1,25,27,29,31,-1,-1,-1,-1,-1,-1,-1,33,-1,35,37,-1,-1,-1,-1,-1,-1,-1],"loss_changes":[6.1098535E2,5.1006287E1,1.8890015E1,1.7735243E0,3.350891E0,9.539551E0,9.6022415E0,0E0,0E0,0E0,1.3642273E0,9.5410156E-1,2.1153496E1,0E0,4.3931494E0,7.964909E-1,0E0,2.4975586E-1,6.6211977E0,8.925106E0,1.2092052E1,0E0,0E0,0E0,0E0,0E0,0E0,0E0,7.1413593E0,0E0,3.2578087E0,3.8756497E0,0E0,0E0,0E0,0E0,0E0,0E0,0E0],"parents":[2147483647,0,0,1,1,2,2,3,3,4,4,5,5,6,6,10,10,11,11,12,12,14,14,15,15,17,17,18,18,19,19,20,20,28,28,30,30,31,31],"right_children":[2,4,6,8,10,12,14,-1,-1,-1,16,18,20,-1,22,24,-1,26,28,30,32,-1,-1,-1,-1,-1,-1,-1,34,-1,36,38,-1,-1,-1,-1,-1,-1,-1],"split_conditions":[-2.1006665E0,-3.1926158E-1,4.747222E0,-7.722436E-1,-3.0950477E0,1.941409E0,-4.750412E-1,3.0505707E-2,-9.075118E-2,6.878549E-2,7.808644E-1,1.0788E0,1.0880039E0,2.4302523E-1,-7.772783E-2,2.591E1,2.5272492E-1,-2.4952826E0,6.765175E-1,-1.4845474E0,5.4087174E-1,-8.1812285E-2,9.336564E-2,1.7202727E-2,1.3701542E-1,-3.7322443E-2,-1.0766242E-1,-1.0179631E-1,-4.1207176E-1,9.948979E-2,-4.1726175E-1,3.4665957E-1,2.2490864E-1,1.8846223E-1,-6.766752E-2,-1.3381125E-2,-9.9416964E-2,9.207824E-2,-8.147017E-2],"split_indices":[10,4,4,18,2,4,16,0,0,0,4,21,18,0,1,29,0,19,4,16,1,0,0,0,0,0,0,0,13,0,21,30,0,0,0,0,0,0,0],"split_type":[0,0,0,0,0,0,0,0,0,0,0,0,0,0,0,0,0,0,0,0,0,0,0,0,0,0,0,0,0,0,0,0,0,0,0,0,0,0,0],"sum_hessian":[9.256E2,6.3639774E1,8.6196014E2,5.4159007E0,5.8223873E1,8.56768E2,5.1921735E0,1.0172923E0,4.398608E0,2.0013223E0,5.6222553E1,7.930021E2,6.376592E1,1.2189391E0,3.9732347E0,2.4257622E0,5.379679E1,7.7958887E2,1.3413185E1,5.7348427E1,6.4174933E0,2.5687351E0,1.4044994E0,1.170397E0,1.2553651E0,1.8498905E0,7.77739E2,1.0835731E1,2.5774546E0,1.7590482E0,5.558938E1,3.711378E0,2.706115E0,1.027743E0,1.5497117E0,5.1830683E0,5.040631E1,1.0125858E0,2.6987925E0],"tree_param":{"num_deleted":"0","num_feature":"32","num_nodes":"39","size_leaf_vector":"1"}},{"base_weights":[-8.0254024E-1,2.1374342E0,-1.00502E0,2.1950617E-1,2.7537275E-2,2.7937138E-1,-1.0371994E0,-9.3080884E-1,1.817157E0,-1.0420558E0,7.0830524E-2,-1.00417934E-1,-8.979477E-3,2.0095463E-1,4.0743377E-2,-1.0584449E0,-6.7360395E-1,-8.1050926E-1,-1.0653569E0,-9.085892E-1,5.578572E-1,6.4922616E-2,-9.239124E-2,-1.0665994E-1,-2.6513143E-2,-4.2771827E-2,-1.0577406E-1,-5.6177277E-2,1.4369339E-1],"categories":[],"categories_nodes":[],"categories_segments":[],"categories_sizes":[],"default_left":[0,0,0,0,0,0,0,0,0,0,0,0,0,0,0,0,0,0,0,0,0,0,0,0,0,0,0,0,0],"id":4,"left_children":[1,3,5,-1,-1,7,9,11,13,15,-1,-1,-1,-1,-1,17,19,21,23,25,27,-1,-1,-1,-1,-1,-1,-1,-1],"loss_changes":[5.1044995E2,5.3336487E0,3.333545E1,0E0,0E0,3.9525585E1,7.3519287E0,6.5265083E-1,1.7013531E0,3.987671E0,0E0,0E0,0E0,0E0,0E0,4.107666E-1,1.0895956E1,4.630225E0,4.3328857E-1,1.7372208E0,7.0793395E0,0E0,0E0,0E0,0E0,0E0,0E0,0E0,0E0],"parents":[2147483647,0,0,1,1,2,2,5,5,6,6,7,7,8,8,9,9,15,15,16,16,17,17,18,18,19,19,20,20],"right_children":[2,4,6,-1,-1,8,10,12,14,16,-1,-1,-1,-1,-1,18,20,22,24,26,28,-1,-1,-1,-1,-1,-1,-1,-1],"split_conditions":[-1.693419E0,-1.4281843E0,-1.8749433E0,2.1950617E-1,2.7537275E-2,9.905199E-1,5.342759E0,1.293391E0,-3.0848753E-1,1.4027141E0,7.0830524E-2,-1.00417934E-1,-8.979477E-3,2.0095463E-1,4.0743377E-2,-1.5045385E0,2.4060123E0,-2.0381444E0,4.747222E0,-1.4128906E-1,1.13296835E-2,6.4922616E-2,-9.239124E-2,-1.0665994E-1,-2.6513143E-2,-4.2771827E-2,-1.0577406E-1,-5.6177277E-2,1.4369339E-1],"split_indices":[17,10,10,0,0,4,4,30,12,17,0,0,0,0,0,19,4,12,4,23,28,0,0,0,0,0,0,0,0],"split_type":[0,0,0,0,0,0,0,0,0,0,0,0,0,0,0,0,0,0,0,0,0,0,0,0,0,0,0,0,0],"sum_hessian":[8.528791E2,5.4338356E1,7.985407E2,5.25337E1,1.8046579E0,1.9330042E1,7.792107E2,1.1038142E1,8.291901E0,7.774506E2,1.7600366E0,9.973996E0,1.0641458E0,6.921775E0,1.3701257E0,7.425488E2,3.4901814E1,2.334718E1,7.1920166E2,2.9529278E1,5.372537E0,1.3424244E0,2.2004755E1,7.177544E2,1.4472711E0,7.9063897E0,2.1622889E1,2.5217187E0,2.8508186E0],"tree_param":{"num_deleted":"0","num_feature":"32","num_nodes":"29","size_leaf_vector":"1"}},{"base_weights":[-7.762742E-1,1.8633884E0,-1.0068256E0,1.9595183E0,3.4774682E-1,1.0050519E0,-1.0191994E0,1.990261E-1,6.3858695E-2,1.3777837E-1,-7.6818995E-2,-6.687617E-2,1.592992E-1,-1.0440824E0,-6.0295177E-1,-7.804921E-1,-1.0581015E0,-7.697921E-1,9.246936E-1,-8.986549E-1,8.72371E-1,-8.087629E-3,-1.0595373E0,8.896536E-2,-8.366904E-1,1.8553799E0,-6.8066284E-2,2.8836915E-2,-9.481672E-2,-5.632767E-2,1.893439E-1,-2.5461946E-2,-1.0609984E-1,-8.263346E-3,-9.458441E-2,3.718446E-2,2.351772E-1],"categories":[],"categories_nodes":[],"categories_segments":[],"categories_sizes":[],"default_left":[0,0,0,0,0,0,0,0,0,0,0,0,0,0,0,0,0,0,0,0,0,0,0,0,0,0,0,0,0,0,0,0,0,0,0,0,0],"id":5,"left_children":[1,3,5,7,9,11,13,-1,-1,-1,-1,-1,-1,15,17,19,21,23,25,27,29,-1,31,-1,33,35,-1,-1,-1,-1,-1,-1,-1,-1,-1,-1,-1],"loss_changes":[4.8781708E2,8.714615E0,1.93219E1,1.1829376E0,6.877024E0,5.9822903E0,6.9417725E0,0E0,0E0,0E0,0E0,0E0,0E0,1.7179565E0,1.182443E1,8.317947E0,8.274536E-1,5.1686554E0,8.355662E0,2.4182568E0,5.58317E0,0E0,4.940796E-1,0E0,3.1174011E0,1.5361433E0,0E0,0E0,0E0,0E0,0E0,0E0,0E0,0E0,0E0,0E0,0E0],"parents":[2147483647,0,0,1,1,2,2,3,3,4,4,5,5,6,6,13,13,14,14,15,15,16,16,17,17,18,18,19,19,20,20,22,22,24,24,25,25],"right_children":[2,4,6,8,10,12,14,-1,-1,-1,-1,-1,-1,16,18,20,22,24,26,28,30,-1,32,-1,34,36,-1,-1,-1,-1,-1,-1,-1,-1,-1,-1,-1],"split_conditions":[-3.5017025E0,7.716435E-1,-1.693419E0,1.8398061E0,-1.976198E0,1.3575405E0,2.5936682E0,1.990261E-1,6.3858695E-2,1.3777837E-1,-7.6818995E-2,-6.687617E-2,1.592992E-1,-1.3464084E0,1.5932933E0,2.6527E2,-7.67406E0,-2.2434871E0,1.980503E-2,-3.4733615E0,4.1330907E-1,-8.087629E-3,-2.8169885E0,8.896536E-2,2.5E0,-2.6117934E-2,-6.8066284E-2,2.8836915E-2,-9.481672E-2,-5.632767E-2,1.893439E-1,-2.5461946E-2,-1.0609984E-1,-8.263346E-3,-9.458441E-2,3.718446E-2,2.351772E-1],"split_indices":[14,7,17,18,10,4,4,0,0,0,0,0,0,14,17,29,7,14,27,3,18,0,20,0,29,27,0,0,0,0,0,0,0,0,0,0,0],"split_type":[0,0,0,0,0,0,0,0,0,0,0,0,0,0,0,0,0,0,0,0,0,0,0,0,0,0,0,0,0,0,0,0,0,0,0,0,0],"sum_hessian":[7.974862E2,6.3489586E1,7.3399664E2,5.942752E1,4.062068E0,3.9963903E0,7.3000024E2,5.758071E1,1.8468062E0,1.9903152E0,2.0717528E0,1.0031226E0,2.9932678E0,6.8739966E2,4.2600616E1,3.757511E1,6.498245E2,3.885338E1,3.7472413E0,3.549396E1,2.0811508E0,1.0374863E0,6.4878705E2,1.0290372E0,3.782434E1,2.2734766E0,1.4737645E0,1.2280525E0,3.426591E1,1.0513172E0,1.0298336E0,1.4930832E0,6.4729395E2,5.0050974E0,3.281924E1,1.0085078E0,1.2649688E0],"tree_param":{"num_deleted":"0","num_feature":"32","num_nodes":"37","size_leaf_vector":"1"}},{"base_weights":[-7.6096404E-1,1.6938198E0,-9.984803E-1,1.7429814E0,-5.937032E-2,1.184792E0,-1.0154052E0,1.8146889E-1,7.6000065E-1,-2.6436685E-2,1.601322E0,-1.020763E0,2.9314946E-2,1.4493254E-1,-2.4468727E-1,1.8405172E-1,5.074196E-2,-1.0392933E0,-7.719029E-1,8.78264E-2,-7.334055E-2,-6.6331856E-2,3.5960987E-2,-1.0438395E0,-4.471039E-1,-8.349262E-1,1.4735006E-1,-1.0569012E-1,-8.487921E-2,8.9540936E-2,-8.8018596E-2,-9.002485E-2,7.2331424E-3,-7.324367E-2,1.392056E-1],"categories":[],"categories_nodes":[],"categories_segments":[],"categories_sizes":[],"default_left":[0,0,0,0,0,0,0,0,0,0,0,0,0,0,0,0,0,0,0,0,0,0,0,0,0,0,0,0,0,0,0,0,0,0,0],"id":6,"left_children":[1,3,5,7,-1,9,11,-1,13,-1,15,17,19,-1,21,-1,-1,23,25,-1,-1,-1,-1,27,29,31,33,-1,-1,-1,-1,-1,-1,-1,-1],"loss_changes":[4.2885992E2,8.345184E0,2.5910278E1,3.1243591E0,0E0,3.806584E0,3.7468262E0,0E0,4.554661E0,0E0,2.4230766E-1,2.2444458E0,3.4674401E0,0E0,1.0792632E0,0E0,0E0,1.1810303E0,3.0007153E0,0E0,0E0,0E0,0E0,6.482544E-1,4.5160494E0,2.8288803E0,5.440351E0,0E0,0E0,0E0,0E0,0E0,0E0,0E0,0E0],"parents":[2147483647,0,0,1,1,2,2,3,3,5,5,6,6,8,8,10,10,11,11,12,12,14,14,17,17,18,18,23,23,24,24,25,25,26,26],"right_children":[2,4,6,8,-1,10,12,-1,14,-1,16,18,20,-1,22,-1,-1,24,26,-1,-1,-1,-1,28,30,32,34,-1,-1,-1,-1,-1,-1,-1,-1],"split_conditions":[-3.5017025E0,1.0163567E0,-1.693419E0,1.6884737E0,-5.937032E-2,1.3575405E0,4.747222E0,1.8146889E-1,-1.8749433E0,-2.6436685E-2,1.05322E5,1.1138988E0,7.71755E-2,1.4493254E-1,7.0822E4,1.8405172E-1,5.074196E-2,5.145548E0,2.6527E2,8.78264E-2,-7.334055E-2,-6.6331856E-2,3.5960987E-2,2.7946E2,-6.9987804E-1,3.064156E0,5.426497E-1,-1.0569012E-1,-8.487921E-2,8.9540936E-2,-8.8018596E-2,-9.002485E-2,7.2331424E-3,-7.324367E-2,1.392056E-1],"split_indices":[14,10,17,17,0,4,4,0,10,0,0,17,26,0,0,0,0,30,29,0,0,0,0,29,19,4,18,0,0,0,0,0,0,0,0],"split_type":[0,0,0,0,0,0,0,0,0,0,0,0,0,0,0,0,0,0,0,0,0,0,0,0,0,0,0,0,0,0,0,0,0,0,0],"sum_hessian":[7.316436E2,6.400512E1,6.6763855E2,6.2891552E1,1.1135652E0,4.604947E0,6.6303357E2,5.782702E1,5.0645313E0,1.1096503E0,3.495297E0,6.5967334E2,3.3602617E0,2.741205E0,2.3233263E0,2.3080826E0,1.1872144E0,6.110017E2,4.867161E1,1.5185475E0,1.8417141E0,1.3148115E0,1.0085148E0,6.055899E2,5.4117727E0,4.563467E1,3.0369427E0,5.6343945E2,4.215048E1,1.0595964E0,4.352176E0,4.2576874E1,3.0577962E0,2.0204213E0,1.0165215E0],"tree_param":{"num_deleted":"0","num_feature":"32","num_nodes":"35","size_leaf_vector":"1"}},{"base_weights":[-7.4461657E-1,1.4608591E0,-9.7036415E-1,1.6214702E0,-6.078705E-1,1.1117969E0,-9.848251E-1,1.5757117E-2,1.6448787E-1,-8.339597E-2,1.8017547E-2,1.5961991E-1,2.3160658E-3,-1.0137229E0,-4.1635954E-1,-1.0349714E0,-7.157269E-1,5.798933E-1,-6.919526E-1,-1.0384792E0,-1.4680856E-1,-7.739488E-1,4.5280915E-2,1.5381898E0,-3.9444113E-1,1.3419537E-1,-8.87678E-1,-1.0402218E-1,-2.1896744E-2,-6.0890462E-2,4.5588218E-2,-8.313756E-2,8.986074E-3,-1.4991567E-2,2.1976821E-1,4.3087106E-2,-7.6664895E-2,-5.8270317E-2,1.2855892E-1,-5.8076535E-3,-9.721055E-2],"categories":[],"categories_nodes":[],"categories_segments":[],"categories_sizes":[],"default_left":[0,0,0,0,0,0,0,0,0,0,0,0,0,0,0,0,0,0,0,0,0,0,0,0,0,0,0,0,0,0,0,0,0,0,0,0,0,0,0,0,0],"id":7,"left_children":[1,3,5,7,9,11,13,-1,-1,-1,-1,-1,-1,15,17,19,21,23,25,27,29,31,-1,33,35,37,39,-1,-1,-1,-1,-1,-1,-1,-1,-1,-1,-1,-1,-1,-1],"loss_changes":[3.3937274E2,2.2059937E1,1.9653564E1,1.7670593E0,1.093996E0,2.4525495E0,9.641968E0,0E0,0E0,0E0,0E0,0E0,0E0,2.9464722E0,9.004278E0,1.5339355E0,3.2078552E0,7.4542074E0,4.1615953E0,5.420532E-1,1.1950127E0,2.0775528E0,0E0,4.6728354E0,1.6918818E0,5.4186683E0,1.368391E0,0E0,0E0,0E0,0E0,0E0,0E0,0E0,0E0,0E0,0E0,0E0,0E0,0E0,0E0],"parents":[2147483647,0,0,1,1,2,2,3,3,4,4,5,5,6,6,13,13,14,14,15,15,16,16,17,17,18,18,19,19,20,20,21,21,23,23,24,24,25,25,26,26],"right_children":[2,4,6,8,10,12,14,-1,-1,-1,-1,-1,-1,16,18,20,22,24,26,28,30,32,-1,34,36,38,40,-1,-1,-1,-1,-1,-1,-1,-1,-1,-1,-1,-1,-1,-1],"split_conditions":[-2.1006665E0,-4.6497223E-1,-1.693419E0,-4.6300647E-1,1.8707023E0,-5.200596E-1,2.8317192E0,1.5757117E-2,1.6448787E-1,-8.339597E-2,1.8017547E-2,1.5961991E-1,2.3160658E-3,1.1138988E0,3.9E0,8.929055E0,5.8029044E-1,3.3907023E-1,-1.5045385E0,3.834649E0,7.405488E-2,2.6527E2,4.5280915E-2,3.214833E-2,3.8974352E-2,3.043893E-1,-2.3303835E-1,-1.0402218E-1,-2.1896744E-2,-6.0890462E-2,4.5588218E-2,-8.313756E-2,8.986074E-3,-1.4991567E-2,2.1976821E-1,4.3087106E-2,-7.6664895E-2,-5.8270317E-2,1.2855892E-1,-5.8076535E-3,-9.721055E-2],"split_indices":[10,12,17,4,17,5,4,0,0,0,0,0,0,17,29,30,27,10,19,20,7,29,0,28,6,17,27,0,0,0,0,0,0,0,0,0,0,0,0,0,0],"split_type":[0,0,0,0,0,0,0,0,0,0,0,0,0,0,0,0,0,0,0,0,0,0,0,0,0,0,0,0,0,0,0,0,0,0,0,0,0,0,0,0,0],"sum_hessian":[6.777875E2,6.2426903E1,6.1536053E2,5.8130028E1,4.296874E0,3.7209172E0,6.1163965E2,1.0365785E0,5.709345E1,3.2936642E0,1.0032098E0,2.2524319E0,1.4684854E0,5.8130585E2,3.0333803E1,5.403064E2,4.0999413E1,6.3336954E0,2.4000107E1,5.3801227E2,2.2941499E0,3.9375233E1,1.6241798E0,2.9013724E0,3.4323232E0,4.657096E0,1.934301E1,5.3660187E2,1.4103937E0,1.2926992E0,1.0014505E0,3.695592E1,2.419312E0,1.0321229E0,1.8692496E0,1.017832E0,2.414491E0,3.1744723E0,1.4826237E0,1.9425904E0,1.7400421E1],"tree_param":{"num_deleted":"0","num_feature":"32","num_nodes":"41","size_leaf_vector":"1"}},{"base_weights":[-7.3139346E-1,1.3442883E0,-9.8782456E-1,1.554849E0,1.2592428E-2,6.355115E-2,-9.939668E-1,1.5659912E-1,4.502693E-2,-7.2501636E-1,1.3218046E0,-3.722757E-1,-1.0111169E0,2.3628129E-2,-9.182072E-2,1.6201584E-1,2.1518199E-2,-6.6717637E-1,9.902325E-1,-1.0158628E0,-6.3028716E-2,-9.042846E-1,1.09636046E-1,-5.57957E-2,1.934636E-1,-6.083434E-1,-1.0256726E0,8.46717E-2,-7.007354E-2,-8.9371065E-3,-9.7907655E-2,-6.815012E-2,9.5285736E-2,-8.539395E-2,1.2209791E-1,-1.02744155E-1,-2.9892577E-2],"categories":[],"categories_nodes":[],"categories_segments":[],"categories_sizes":[],"default_left":[0,0,0,0,0,0,0,0,0,0,0,0,0,0,0,0,0,0,0,0,0,0,0,0,0,0,0,0,0,0,0,0,0,0,0,0,0],"id":8,"left_children":[1,3,5,7,9,-1,11,-1,-1,13,15,17,19,-1,-1,-1,-1,21,23,25,27,29,31,-1,-1,33,35,-1,-1,-1,-1,-1,-1,-1,-1,-1,-1],"loss_changes":[3.3531174E2,1.9445465E1,6.2059937E0,3.250122E-2,1.1084193E1,0E0,5.565857E0,0E0,0E0,1.5824635E0,1.015914E0,7.308426E0,2.3737793E0,0E0,0E0,0E0,0E0,2.7143335E0,5.972168E0,1.5309448E0,2.7774296E0,5.82098E-1,3.4593577E0,0E0,0E0,7.839301E0,3.6767578E-1,0E0,0E0,0E0,0E0,0E0,0E0,0E0,0E0,0E0,0E0],"parents":[2147483647,0,0,1,1,2,2,3,3,4,4,6,6,9,9,10,10,11,11,12,12,17,17,18,18,19,19,20,20,21,21,22,22,25,25,26,26],"right_children":[2,4,6,8,10,-1,12,-1,-1,14,16,18,20,-1,-1,-1,-1,22,24,26,28,30,32,-1,-1,34,36,-1,-1,-1,-1,-1,-1,-1,-1,-1,-1],"split_conditions":[-2.6685543E0,-1.4597496E0,-3.1720276E0,-5.279049E-1,1.941409E0,6.355115E-2,-1.7189388E0,1.5659912E-1,4.502693E-2,-6.877946E-1,1.3866857E0,1.82E2,2.2680619E0,2.3628129E-2,-9.182072E-2,1.6201584E-1,2.1518199E-2,9.089412E-1,-1.6632056E-1,-1.8991613E0,-2.9761872E-1,7.7E-1,7.2522044E-2,-5.57957E-2,1.934636E-1,1.3673222E0,2.2005217E0,8.46717E-2,-7.007354E-2,-8.9371065E-3,-9.7907655E-2,-6.815012E-2,9.5285736E-2,-8.539395E-2,1.2209791E-1,-1.02744155E-1,-2.9892577E-2],"split_indices":[14,12,17,3,4,0,14,0,0,13,2,29,17,0,0,0,0,30,21,8,21,29,1,0,0,15,15,0,0,0,0,0,0,0,0,0,0],"split_type":[0,0,0,0,0,0,0,0,0,0,0,0,0,0,0,0,0,0,0,0,0,0,0,0,0,0,0,0,0,0,0,0,0,0,0,0,0],"sum_hessian":[6.264714E2,6.841817E1,5.580532E2,5.8932503E1,9.485663E0,1.7173057E0,5.563359E2,5.7930424E1,1.0020775E0,6.3527503E0,3.132913E0,1.5544773E1,5.4079114E2,1.025738E0,5.327012E0,2.1021118E0,1.0308014E0,1.3198441E1,2.3463326E0,5.3802637E2,2.7647192E0,9.986226E0,3.2122147E0,1.0440255E0,1.302307E0,1.412808E1,5.238983E2,1.004276E0,1.7604432E0,1.023993E0,8.962233E0,1.7562413E0,1.4559734E0,1.2925904E1,1.2021765E0,5.222135E2,1.6848263E0],"tree_param":{"num_deleted":"0","num_feature":"32","num_nodes":"37","size_leaf_vector":"1"}},{"base_weights":[-7.2462666E-1,1.3690379E0,-9.437295E-1,1.4200331E0,-5.8867592E-2,-9.98235E-1,-3.151711E-1,1.4662371E0,3.8431147E-1,-8.0186886E-1,-1.0293732E0,1.0987569E0,-6.780704E-1,1.4818005E-1,4.389811E-2,9.823603E-2,-5.8133062E-2,-9.182158E-1,-3.5732952E-1,-2.397032E-1,-1.0340215E0,-5.8635104E-2,1.3909502E0,6.040457E-1,-8.428522E-1,-8.259713E-2,-9.5035195E-1,8.9891154E-1,-7.7447367E-1,-6.700799E-2,4.529145E-2,-2.2626365E-2,-1.03634216E-1,-2.7874561E-3,1.689774E0,-4.2736858E-1,1.7295368E-1,-9.2421126E-1,-7.293838E-2,4.619116E-2,-5.615003E-2,-9.675584E-2,-3.2364388E-3,1.9806029E-1,-6.624415E-2,2.5148991E-2,-9.1570206E-2,1.8966238E-1,4.604278E-2,-4.9750055E-3,-5.8397353E-2,-9.537868E-2,-6.990954E-3,8.879034E-2,-7.102271E-2],"categories":[],"categories_nodes":[],"categories_segments":[],"categories_sizes":[],"default_left":[0,0,0,0,0,0,0,0,0,0,0,0,0,0,0,0,0,0,0,0,0,0,0,0,0,0,0,0,0,0,0,0,0,0,0,0,0,0,0,0,0,0,0,0,0,0,0,0,0,0,0,0,0,0,0],"id":9,"left_children":[1,3,5,7,-1,9,11,13,15,17,19,21,23,-1,-1,-1,-1,25,27,29,31,-1,33,35,37,39,41,43,45,-1,-1,-1,-1,-1,47,49,-1,51,53,-1,-1,-1,-1,-1,-1,-1,-1,-1,-1,-1,-1,-1,-1,-1,-1],"loss_changes":[2.6365033E2,6.285904E0,1.7443542E1,1.996582E0,0E0,2.0881958E0,2.2717743E1,1.6260529E-1,2.6730804E0,3.279129E0,1.2489319E0,5.3098316E0,7.8390408E0,0E0,0E0,0E0,0E0,1.3887787E0,9.135454E0,1.4028459E0,5.248413E-1,0E0,3.4708843E0,6.0021634E0,1.8844929E0,1.072617E0,7.98275E-1,8.873857E0,2.0598931E0,0E0,0E0,0E0,0E0,0E0,8.2710266E-1,1.5827048E-1,0E0,6.4323425E-1,3.1190364E0,0E0,0E0,0E0,0E0,0E0,0E0,0E0,0E0,0E0,0E0,0E0,0E0,0E0,0E0,0E0,0E0],"parents":[2147483647,0,0,1,1,2,2,3,3,5,5,6,6,7,7,8,8,9,9,10,10,11,11,12,12,17,17,18,18,19,19,20,20,22,22,23,23,24,24,25,25,26,26,27,27,28,28,34,34,35,35,37,37,38,38],"right_children":[2,4,6,8,-1,10,12,14,16,18,20,22,24,-1,-1,-1,-1,26,28,30,32,-1,34,36,38,40,42,44,46,-1,-1,-1,-1,-1,48,50,-1,52,54,-1,-1,-1,-1,-1,-1,-1,-1,-1,-1,-1,-1,-1,-1,-1,-1],"split_conditions":[-3.5017025E0,1.0163567E0,2.1726098E0,7.716435E-1,-5.8867592E-2,-8.130821E-1,-8.900852E-1,1.4852961E0,-1.976198E0,7.503356E-1,-1.5392913E0,-6.3449824E-1,-4.0856376E-1,1.4818005E-1,4.389811E-2,9.823603E-2,-5.8133062E-2,-1.5594926E0,-8.046881E-1,-2.303668E0,-2.4952826E0,-5.8635104E-2,-3.824642E-1,2.1199249E-1,1.52417E5,5.1490736E-1,1.1933976E0,5.8514E4,8.2700545E-1,-6.700799E-2,4.529145E-2,-2.2626365E-2,-1.03634216E-1,-2.7874561E-3,4.9588946E-1,3.4088156E0,1.7295368E-1,1.6733948E0,7.81E0,4.619116E-2,-5.615003E-2,-9.675584E-2,-3.2364388E-3,1.9806029E-1,-6.624415E-2,2.5148991E-2,-9.1570206E-2,1.8966238E-1,4.604278E-2,-4.9750055E-3,-5.8397353E-2,-9.537868E-2,-6.990954E-3,8.879034E-2,-7.102271E-2],"split_indices":[14,10,4,7,0,14,14,6,10,4,23,24,21,0,0,0,0,6,13,1,19,0,23,31,0,16,12,0,4,0,0,0,0,0,22,4,0,19,29,0,0,0,0,0,0,0,0,0,0,0,0,0,0,0,0],"split_type":[0,0,0,0,0,0,0,0,0,0,0,0,0,0,0,0,0,0,0,0,0,0,0,0,0,0,0,0,0,0,0,0,0,0,0,0,0,0,0,0,0,0,0,0,0,0,0,0,0,0,0,0,0,0,0],"sum_hessian":[5.7092596E2,5.359015E1,5.173358E2,5.2497326E1,1.0928246E0,4.7551346E2,4.182232E1,4.98575E1,2.6398273E0,6.874437E1,4.067691E2,8.127651E0,3.3694668E1,4.8677525E1,1.1799743E0,1.6195079E0,1.0203192E0,5.3639927E1,1.51044445E1,2.6880474E0,4.0408105E2,1.0522864E0,7.0753646E0,3.5337687E0,3.0160898E1,2.1186986E0,5.152123E1,3.4773602E0,1.1627085E1,1.6779488E0,1.0100987E0,1.4397163E0,4.0264133E2,1.3886639E0,5.686701E0,2.1676183E0,1.3661504E0,2.7097061E1,3.0638363E0,1.0080429E0,1.1106558E0,5.0520294E1,1.0009338E0,1.8955933E0,1.5817671E0,1.3123913E0,1.0314693E1,4.4030523E0,1.2836483E0,1.0216974E0,1.1459209E0,2.6077806E1,1.0192541E0,1.0649529E0,1.9988835E0],"tree_param":{"num_deleted":"0","num_feature":"32","num_nodes":"55","size_leaf_vector":"1"}},{"base_weights":[-7.024847E-1,1.1985805E0,-9.6289486E-1,1.3985822E0,-5.6220777E-3,-9.955529E-1,-4.831865E-1,1.414782E-1,5.1555928E-2,-7.5936365E-1,1.2047162E0,-6.035755E-1,-1.01521E0,6.074759E-1,-7.7039E-1,-1.4819683E-3,-8.9759454E-2,3.4243252E-2,1.3823979E-1,-7.5191957E-1,9.2315674E-2,-2.9690745E-1,-1.0196838E0,-1.7523906E-1,1.683781E-1,-9.3120176E-1,2.102383E-1,-9.465279E-1,-2.2879885E-1,-7.0641324E-2,4.5942184E-2,-1.5319294E-2,-1.0214322E0,7.139309E-2,-7.689283E-2,-1.3093744E-2,-9.7033846E-1,-4.9859222E-2,1.09332755E-1,-4.391345E-2,-1.0026206E-1,-7.010313E-2,9.1132104E-2,-1.0237298E-1,-2.647048E-2,-1.0134943E-1,-1.2673819E-2],"categories":[],"categories_nodes":[],"categories_segments":[],"categories_sizes":[],"default_left":[0,0,0,0,0,0,0,0,0,0,0,0,0,0,0,0,0,0,0,0,0,0,0,0,0,0,0,0,0,0,0,0,0,0,0,0,0,0,0,0,0,0,0,0,0,0,0],"id":10,"left_children":[1,3,5,7,9,11,13,-1,-1,15,17,19,21,23,25,-1,-1,-1,-1,27,-1,29,31,33,-1,35,37,39,41,-1,-1,-1,43,-1,-1,-1,45,-1,-1,-1,-1,-1,-1,-1,-1,-1,-1],"loss_changes":[2.636796E2,1.5502274E1,6.834503E0,5.986023E-2,1.0182836E1,2.7486267E0,1.0399929E1,0E0,0E0,6.941445E-1,1.8318653E-1,5.9709377E0,1.0274963E0,6.3337855E0,4.223153E0,0E0,0E0,0E0,0E0,2.0014076E0,0E0,1.5550853E0,4.66156E-1,3.2178829E0,0E0,5.6589127E-1,3.3080165E0,2.5863647E-3,4.5294333E0,0E0,0E0,0E0,4.4180298E-1,0E0,0E0,0E0,6.338043E-1,0E0,0E0,0E0,0E0,0E0,0E0,0E0,0E0,0E0,0E0],"parents":[2147483647,0,0,1,1,2,2,3,3,4,4,5,5,6,6,9,9,10,10,11,11,12,12,13,13,14,14,19,19,21,21,22,22,23,23,25,25,26,26,27,27,28,28,32,32,36,36],"right_children":[2,4,6,8,10,12,14,-1,-1,16,18,20,22,24,26,-1,-1,-1,-1,28,-1,30,32,34,-1,36,38,40,42,-1,-1,-1,44,-1,-1,-1,46,-1,-1,-1,-1,-1,-1,-1,-1,-1,-1],"split_conditions":[-2.6685543E0,-1.9306394E0,2.5936682E0,8.470921E-1,1.941409E0,-1.3901924E0,3.9E0,1.414782E-1,5.1555928E-2,-1.7620344E0,-3.5465533E-1,4.8290107E-1,-1.5392913E0,6.6569394E-1,1.3673922E0,-1.4819683E-3,-8.9759454E-2,3.4243252E-2,1.3823979E-1,1.3116256E0,9.2315674E-2,7.305227E-1,-2.7747185E0,-4.1726175E-1,1.683781E-1,-9.9887156E-1,2.647131E-1,9.790867E-2,9.6567047E-1,-7.0641324E-2,4.5942184E-2,-1.5319294E-2,1.1088973E0,7.139309E-2,-7.689283E-2,-1.3093744E-2,1.1369591E0,-4.9859222E-2,1.09332755E-1,-4.391345E-2,-1.0026206E-1,-7.010313E-2,9.1132104E-2,-1.0237298E-1,-2.647048E-2,-1.0134943E-1,-1.2673819E-2],"split_indices":[14,12,4,16,4,14,29,0,0,10,24,23,23,30,7,0,0,0,0,1,0,9,10,21,0,24,5,31,30,0,0,0,27,0,0,0,18,0,0,0,0,0,0,0,0,0,0],"split_type":[0,0,0,0,0,0,0,0,0,0,0,0,0,0,0,0,0,0,0,0,0,0,0,0,0,0,0,0,0,0,0,0,0,0,0,0,0,0,0,0,0,0,0,0,0,0,0],"sum_hessian":[5.2929376E2,6.3334187E1,4.659596E2,5.4175034E1,9.159155E0,4.352527E2,3.0706907E1,5.2607704E1,1.5673294E0,5.87382E0,3.2853355E0,2.2299007E1,4.1295367E2,6.1681314E0,2.4538776E1,1.0931369E0,4.7806826E0,1.0614371E0,2.2238984E0,2.078677E1,1.5122373E0,2.9730692E0,4.0998062E2,4.0558233E0,2.112308E0,2.1124933E1,3.4138436E0,1.4560624E1,6.2261453E0,1.9715785E0,1.0014906E0,1.00399E0,4.0897662E2,1.5427339E0,2.5130897E0,1.1875552E0,1.9937378E1,2.1352997E0,1.2785441E0,2.3283112E0,1.2232313E1,4.674934E0,1.5512114E0,4.0738687E2,1.5897651E0,1.8775494E1,1.1618844E0],"tree_param":{"num_deleted":"0","num_feature":"32","num_nodes":"47","size_leaf_vector":"1"}},{"base_weights":[-6.8865573E-1,1.1149994E0,-9.375615E-1,1.3265711E0,1.9760031E-2,-9.810757E-1,-4.5439166E-1,3.0142203E-2,1.3414273E-1,1.2348459E-1,-5.471516E-1,-9.9023074E-1,-1.8895352E-1,7.253526E-1,-6.796934E-1,-9.084987E-2,4.3276053E-2,-8.440266E-1,-1.0194645E0,1.1369126E-1,-8.2119405E-2,1.4438042E-1,4.1964605E-2,3.8292813E-1,-8.4262633E-1,3.551718E-2,-8.6903745E-1,-1.0312313E-1,-7.3301053E-1,7.015405E-2,-6.747955E-2,1.318758E-1,-7.084171E-2,-9.083934E-1,4.2305753E-2,-8.940762E-2,6.7309528E-3,4.0060464E-2,-9.042852E-2,-9.722563E-2,-2.0546699E-2],"categories":[],"categories_nodes":[],"categories_segments":[],"categories_sizes":[],"default_left":[0,0,0,0,0,0,0,0,0,0,0,0,0,0,0,0,0,0,0,0,0,0,0,0,0,0,0,0,0,0,0,0,0,0,0,0,0,0,0,0,0],"id":11,"left_children":[1,3,5,7,9,11,13,-1,-1,-1,15,17,19,21,23,-1,-1,25,27,-1,-1,-1,29,31,33,-1,35,-1,37,-1,-1,-1,-1,39,-1,-1,-1,-1,-1,-1,-1],"loss_changes":[2.1932556E2,1.3742157E1,8.548462E0,3.5385132E-1,8.001395E0,2.6526184E0,1.038251E1,0E0,0E0,0E0,3.2062116E0,7.9312134E-1,5.720065E0,3.1062012E0,5.8209143E0,0E0,0E0,2.4164886E0,3.146057E-1,0E0,0E0,0E0,2.5230658E0,5.9483666E0,2.702322E0,0E0,1.6809807E0,0E0,3.4667425E0,0E0,0E0,0E0,0E0,1.00284E0,0E0,0E0,0E0,0E0,0E0,0E0,0E0],"parents":[2147483647,0,0,1,1,2,2,3,3,4,4,5,5,6,6,10,10,11,11,12,12,13,13,14,14,17,17,18,18,22,22,23,23,24,24,26,26,28,28,33,33],"right_children":[2,4,6,8,10,12,14,-1,-1,-1,16,18,20,22,24,-1,-1,26,28,-1,-1,-1,30,32,34,-1,36,-1,38,-1,-1,-1,-1,40,-1,-1,-1,-1,-1,-1,-1],"split_conditions":[-2.6685543E0,-1.8749433E0,2.1726098E0,1.0177989E-1,-4.9719372E-1,2.502267E0,-8.900852E-1,3.0142203E-2,1.3414273E-1,1.2348459E-1,2.1726098E0,-6.4829135E-1,-1.5131202E0,-2.8076312E-1,-4.0856376E-1,-9.084987E-2,4.3276053E-2,-1.8903444E0,1.2933103E0,1.1369126E-1,-8.2119405E-2,1.4438042E-1,-5.743443E-3,-5.773505E-1,1.9396085E0,3.551718E-2,-6.622903E-1,-1.0312313E-1,-1.3108732E0,7.015405E-2,-6.747955E-2,1.318758E-1,-7.084171E-2,1.4222267E0,4.2305753E-2,-8.940762E-2,6.7309528E-3,4.0060464E-2,-9.042852E-2,-9.722563E-2,-2.0546699E-2],"split_indices":[14,10,4,4,7,7,14,0,0,0,4,14,10,10,21,0,0,13,7,0,0,0,27,12,30,0,14,0,13,0,0,0,0,7,0,0,0,0,0,0,0],"split_type":[0,0,0,0,0,0,0,0,0,0,0,0,0,0,0,0,0,0,0,0,0,0,0,0,0,0,0,0,0,0,0,0,0,0,0,0,0,0,0,0,0],"sum_hessian":[4.852121E2,5.8417755E1,4.2679434E2,4.878295E1,9.634806E0,3.9058762E2,3.6206738E1,1.0009582E0,4.7781994E1,2.6903234E0,6.944483E0,3.858777E2,4.709927E0,5.4499216E0,3.0756817E1,5.1268215E0,1.8176613E0,6.927763E1,3.1660004E2,1.2630235E0,3.4469035E0,2.114361E0,3.3355606E0,3.909498E0,2.6847319E1,1.1456618E0,6.8131966E1,3.0161072E2,1.498933E1,1.7481316E0,1.5874289E0,1.9925259E0,1.916972E0,2.5789541E1,1.0577774E0,6.6401474E1,1.7304912E0,1.7916936E0,1.3197637E1,2.3290388E1,2.4991527E0],"tree_param":{"num_deleted":"0","num_feature":"32","num_nodes":"41","size_leaf_vector":"1"}},{"base_weights":[-6.713454E-1,1.1819927E0,-8.9351386E-1,1.2687274E0,1.7430526E-1,8.6140096E-1,-9.166048E-1,1.2998664E-1,2.149528E-2,9.26186E-2,-7.22962E-2,1.2276639E-1,-2.984277E-2,-9.59627E-1,-4.4802502E-1,-9.7359425E-1,-3.4903893E-1,-4.142566E-2,-9.341022E-1,-9.788071E-1,1.5167943E-3,-7.7833223E-1,6.386008E-1,-5.448315E-1,3.960702E-1,-6.827979E-3,-9.875713E-2,-9.980515E-2,-6.845941E-2,-8.9184664E-2,-4.295545E-3,1.3855459E-1,-5.4559804E-2,-8.120249E-2,6.959075E-2,1.4204504E-1,-1.175354E-2],"categories":[],"categories_nodes":[],"categories_segments":[],"categories_sizes":[],"default_left":[0,0,0,0,0,0,0,0,0,0,0,0,0,0,0,0,0,0,0,0,0,0,0,0,0,0,0,0,0,0,0,0,0,0,0,0,0],"id":12,"left_children":[1,3,5,7,9,11,13,-1,-1,-1,-1,-1,-1,15,17,19,21,23,25,27,-1,29,31,33,35,-1,-1,-1,-1,-1,-1,-1,-1,-1,-1,-1,-1],"loss_changes":[1.862991E2,4.025505E0,1.7091858E1,1.1833496E0,4.0494895E0,2.804819E0,7.5845947E0,0E0,0E0,0E0,0E0,0E0,0E0,2.7580872E0,6.9394817E0,1.8423767E0,4.6022882E0,4.6804695E0,6.749363E-1,1.3138428E0,0E0,5.6268597E-1,3.8366332E0,3.8295286E0,6.1780167E0,0E0,0E0,0E0,0E0,0E0,0E0,0E0,0E0,0E0,0E0,0E0,0E0],"parents":[2147483647,0,0,1,1,2,2,3,3,4,4,5,5,6,6,13,13,14,14,15,15,16,16,17,17,18,18,19,19,21,21,22,22,23,23,24,24],"right_children":[2,4,6,8,10,12,14,-1,-1,-1,-1,-1,-1,16,18,20,22,24,26,28,-1,30,32,34,36,-1,-1,-1,-1,-1,-1,-1,-1,-1,-1,-1,-1],"split_conditions":[-3.5017025E0,5.336189E-1,-1.693419E0,1.8398061E0,-1.9306394E0,-3.5591075E-1,1.1138988E0,1.2998664E-1,2.149528E-2,9.26186E-2,-7.22962E-2,1.2276639E-1,-2.984277E-2,3.7029104E0,1.4907184E-1,8.929055E0,8.953622E-1,7.503356E-1,-1.5822359E0,1.2933103E0,1.5167943E-3,9.686578E-1,7.300353E-2,1.1955601E0,4.846486E-2,-6.827979E-3,-9.875713E-2,-9.980515E-2,-6.845941E-2,-8.9184664E-2,-4.295545E-3,1.3855459E-1,-5.4559804E-2,-8.120249E-2,6.959075E-2,1.4204504E-1,-1.175354E-2],"split_indices":[14,7,17,18,12,5,17,0,0,0,0,0,0,4,8,30,30,4,13,7,0,22,3,30,2,0,0,0,0,0,0,0,0,0,0,0,0],"split_type":[0,0,0,0,0,0,0,0,0,0,0,0,0,0,0,0,0,0,0,0,0,0,0,0,0,0,0,0,0,0,0,0,0,0,0,0,0],"sum_hessian":[4.4888828E2,4.7587894E1,4.0130038E2,4.357796E1,4.0099354E0,4.740202E0,3.9656018E2,4.210036E1,1.4775985E0,2.1641872E0,1.8457481E0,3.5581E0,1.1821017E0,3.6225244E2,3.4307755E1,3.5356995E2,8.682474E0,1.9272062E1,1.503569E1,3.517257E2,1.8442614E0,6.1996326E0,2.4828417E0,8.846952E0,1.042511E1,1.0069654E0,1.4028726E1,3.2788647E2,2.3839218E1,5.18629E0,1.0133426E0,1.418243E0,1.0645987E0,7.5636497E0,1.2833023E0,2.8918023E0,7.533308E0],"tree_param":{"num_deleted":"0","num_feature":"32","num_nodes":"37","size_leaf_vector":"1"}},{"base_weights":[-6.780902E-1,1.0511144E0,-8.9650494E-1,-4.689983E-1,1.18287E0,-9.7624373E-1,-3.049932E-1,-7.496831E-2,6.950269E-3,-9.112841E-3,1.2184144E0,-8.850585E-2,-9.818478E-1,-7.248864E-1,3.5877302E-1,1.2403659E-1,3.308092E-2,4.5326155E-2,-5.597749E-2,-9.847251E-1,-6.6852756E-3,3.9578743E-2,-8.3019316E-1,8.4492046E-1,-4.2388517E-1,-9.9264854E-1,-6.1442405E-1,-4.7976476E-1,7.992689E-2,-3.5519974E-4,-9.179417E-1,1.6723804E-1,2.6043418E-1,-8.6030774E-2,3.3004734E-1,-4.0712368E-2,-9.984285E-2,-8.0165066E-2,4.693351E-2,-5.8566164E-2,-1.2383537E-2,-6.1474618E-2,7.044434E-2,-1.8765986E-2,-1.0005581E-1,-7.463556E-2,7.3003784E-2,-5.277222E-2,8.880841E-2],"categories":[],"categories_nodes":[],"categories_segments":[],"categories_sizes":[],"default_left":[0,0,0,0,0,0,0,0,0,0,0,0,0,0,0,0,0,0,0,0,0,0,0,0,0,0,0,0,0,0,0,0,0,0,0,0,0,0,0,0,0,0,0,0,0,0,0,0,0],"id":13,"left_children":[1,3,5,7,9,11,13,-1,-1,-1,15,17,19,21,23,-1,-1,-1,-1,25,-1,27,29,31,33,35,37,39,-1,41,43,-1,45,-1,47,-1,-1,-1,-1,-1,-1,-1,-1,-1,-1,-1,-1,-1,-1],"loss_changes":[1.581113E2,9.993717E0,1.7154358E1,7.2850937E-1,2.0877953E0,1.532959E0,1.2915918E1,0E0,0E0,0E0,4.1848755E-1,1.0558456E0,7.857361E-1,2.2986097E0,7.3072486E0,0E0,0E0,0E0,0E0,3.3599854E-1,0E0,2.1044848E0,1.8042793E0,5.174652E0,2.8055582E0,6.5615845E-1,2.2791066E0,4.8683643E-2,0E0,1.8924897E0,1.1644478E0,0E0,4.3189406E0,0E0,2.1595507E0,0E0,0E0,0E0,0E0,0E0,0E0,0E0,0E0,0E0,0E0,0E0,0E0,0E0,0E0],"parents":[2147483647,0,0,1,1,2,2,3,3,4,4,5,5,6,6,10,10,11,11,12,12,13,13,14,14,19,19,21,21,22,22,23,23,24,24,25,25,26,26,27,27,29,29,30,30,32,32,34,34],"right_children":[2,4,6,8,10,12,14,-1,-1,-1,16,18,20,22,24,-1,-1,-1,-1,26,-1,28,30,32,34,36,38,40,-1,42,44,-1,46,-1,48,-1,-1,-1,-1,-1,-1,-1,-1,-1,-1,-1,-1,-1,-1],"split_conditions":[-2.1006665E0,1.3157348E-1,1.6964859E0,1.31872E5,1.0177989E-1,-1.5392913E0,4.9310827E-1,-7.496831E-2,6.950269E-3,-9.112841E-3,7.373812E-1,1.4030017E-1,2.2005217E0,1.18E0,3.984259E-1,1.2403659E-1,3.308092E-2,4.5326155E-2,-5.597749E-2,7.832587E-1,-6.6852756E-3,7.5431025E-1,-1.6496705E0,-1.516822E-1,2.3507863E-1,-2.4833965E0,1.0517635E0,1.1425915E-2,7.992689E-2,1.3153652E0,-3.879661E-1,1.6723804E-1,-2.3265994E-1,-8.6030774E-2,3.743444E-1,-4.0712368E-2,-9.984285E-2,-8.0165066E-2,4.693351E-2,-5.8566164E-2,-1.2383537E-2,-6.1474618E-2,7.044434E-2,-1.8765986E-2,-1.0005581E-1,-7.463556E-2,7.3003784E-2,-5.277222E-2,8.880841E-2],"split_indices":[10,11,4,0,4,23,11,0,0,0,24,16,15,29,3,0,0,0,0,23,0,30,3,16,24,8,15,13,0,16,8,0,25,0,2,0,0,0,0,0,0,0,0,0,0,0,0,0,0],"split_type":[0,0,0,0,0,0,0,0,0,0,0,0,0,0,0,0,0,0,0,0,0,0,0,0,0,0,0,0,0,0,0,0,0,0,0,0,0,0,0,0,0,0,0,0,0,0,0,0,0],"sum_hessian":[4.1513913E2,4.6128E1,3.6901114E2,3.4750829E0,4.2652916E1,3.2460263E2,4.440851E1,2.0265899E0,1.4484931E0,1.1152682E0,4.1537647E1,2.1416528E0,3.2246097E2,2.7144827E1,1.7263681E1,4.014733E1,1.3903165E0,1.0140821E0,1.1275709E0,3.2137418E2,1.0867864E0,3.3621006E0,2.3782726E1,1.0599968E1,6.6637135E0,3.1299625E2,8.377936E0,2.215798E0,1.1463026E0,2.370352E0,2.1412374E1,3.6174479E0,6.98252E0,4.1312165E0,2.5324965E0,3.757776E0,3.0923846E2,7.365758E0,1.0121781E0,1.210272E0,1.0055261E0,1.3346626E0,1.0356894E0,2.5086646E0,1.890371E1,2.0335128E0,4.949007E0,1.0195891E0,1.5129075E0],"tree_param":{"num_deleted":"0","num_feature":"32","num_nodes":"49","size_leaf_vector":"1"}},{"base_weights":[-6.5051186E-1,1.0075325E0,-8.6679775E-1,1.1347787E0,-5.6248796E-1,-9.599626E-1,-2.4185355E-1,-1.0999596E-2,1.1757612E0,-7.119973E-2,-5.798413E-3,-9.887239E-1,-5.52723E-1,7.9448134E-1,-4.1854927E-1,4.1884493E-2,1.197035E0,-9.9208087E-1,-9.869597E-3,6.896073E-2,-8.423823E-1,1.4695588E0,-1.5272275E-1,-6.557528E-1,7.035811E-1,1.2215888E-1,5.0742228E-2,-9.954357E-1,-2.5754968E-2,8.542383E-1,-6.2369764E-1,4.2445012E-3,-9.673233E-2,4.385623E-2,1.7057543E-1,5.7360798E-2,-6.956932E-2,4.938999E-1,-7.544996E-1,1.1069149E0,-6.171461E-2,-9.988012E-2,-4.1017525E-2,1.9179206E-1,-1.1688209E-2,-7.731607E-2,-3.2950123E-3,-5.8215834E-2,1.430419E-1,-8.359047E-2,6.3941926E-2,-5.5408054E-3,1.4128399E-1],"categories":[],"categories_nodes":[],"categories_segments":[],"categories_sizes":[],"default_left":[0,0,0,0,0,0,0,0,0,0,0,0,0,0,0,0,0,0,0,0,0,0,0,0,0,0,0,0,0,0,0,0,0,0,0,0,0,0,0,0,0,0,0,0,0,0,0,0,0,0,0,0,0],"id":14,"left_children":[1,3,5,7,9,11,13,-1,15,-1,-1,17,19,21,23,-1,25,27,-1,29,31,33,35,37,39,-1,-1,41,-1,43,45,-1,-1,-1,-1,-1,-1,47,49,51,-1,-1,-1,-1,-1,-1,-1,-1,-1,-1,-1,-1,-1],"loss_changes":[1.3870168E2,9.590958E0,1.9594223E1,2.2609253E0,2.6255918E-1,2.9206238E0,8.667126E0,0E0,1.5139389E-1,0E0,0E0,7.2436523E-1,3.9827466E0,4.684522E0,1.0985966E1,0E0,3.8669586E-2,4.1906738E-1,0E0,4.803396E0,1.6930199E0,2.66572E-1,1.9009848E0,4.1369143E0,4.6155796E0,0E0,0E0,1.2698364E-1,0E0,4.461072E0,3.938998E-1,0E0,0E0,0E0,0E0,0E0,0E0,4.084881E0,4.0443E0,2.216454E0,0E0,0E0,0E0,0E0,0E0,0E0,0E0,0E0,0E0,0E0,0E0,0E0,0E0],"parents":[2147483647,0,0,1,1,2,2,3,3,4,4,5,5,6,6,8,8,11,11,12,12,13,13,14,14,16,16,17,17,19,19,20,20,21,21,22,22,23,23,24,24,27,27,29,29,30,30,37,37,38,38,39,39],"right_children":[2,4,6,8,10,12,14,-1,16,-1,-1,18,20,22,24,-1,26,28,-1,30,32,34,36,38,40,-1,-1,42,-1,44,46,-1,-1,-1,-1,-1,-1,48,50,52,-1,-1,-1,-1,-1,-1,-1,-1,-1,-1,-1,-1,-1],"split_conditions":[-2.1006665E0,-4.0139598E-1,1.6407202E0,-3.1926158E-1,4.0643934E-2,1.1431301E0,-2.6296957E0,-1.0999596E-2,-3.0950477E0,-7.119973E-2,-5.798413E-3,2.2005217E0,-2.3508187E-1,1.3250846E-1,1.1369591E0,4.1884493E-2,1.8055528E0,1.1088973E0,-9.869597E-3,-2.1278593E-1,1.2211194E0,4.3073463E-1,-2.0651254E-1,-1.8991613E0,5.4544204E-1,1.2215888E-1,5.0742228E-2,1.2315837E0,-2.5754968E-2,-1.3850223E-1,-4.3229273E-1,4.2445012E-3,-9.673233E-2,4.385623E-2,1.7057543E-1,5.7360798E-2,-6.956932E-2,2.9292578E-1,4.747222E0,-1.7257756E-1,-6.171461E-2,-9.988012E-2,-4.1017525E-2,1.9179206E-1,-1.1688209E-2,-7.731607E-2,-3.2950123E-3,-5.8215834E-2,1.430419E-1,-8.359047E-2,6.3941926E-2,-5.5408054E-3,1.4128399E-1],"split_indices":[10,12,4,4,27,17,12,0,2,0,0,15,8,18,18,0,27,27,0,26,17,30,6,8,10,0,0,26,0,23,10,0,0,0,0,0,0,15,4,23,0,0,0,0,0,0,0,0,0,0,0,0,0],"split_type":[0,0,0,0,0,0,0,0,0,0,0,0,0,0,0,0,0,0,0,0,0,0,0,0,0,0,0,0,0,0,0,0,0,0,0,0,0,0,0,0,0,0,0,0,0,0,0,0,0,0,0,0,0],"sum_hessian":[3.833388E2,4.3812737E1,3.3952606E2,4.0784477E1,3.0282612E0,2.9501068E2,4.4515404E1,1.2462975E0,3.9538177E1,2.0187297E0,1.0095314E0,2.7421628E2,2.079438E1,5.975031E0,3.854037E1,1.6464393E0,3.789174E1,2.7307166E2,1.1446272E0,6.8514094E0,1.3942971E1,3.166663E0,2.8083682E0,3.2158176E1,6.382195E0,3.5844093E1,2.0476453E0,2.7147653E2,1.5951153E0,3.1016948E0,3.7497146E0,1.806894E0,1.2136078E1,1.1227255E0,2.0439374E0,1.1772016E0,1.6311665E0,2.2271433E0,2.9931032E1,5.013135E0,1.3690599E0,2.692218E2,2.2547567E0,1.014997E0,2.0866978E0,2.7461395E0,1.0035751E0,1.2124369E0,1.0147064E0,2.8657738E1,1.2732953E0,1.2151625E0,3.7979724E0],"tree_param":{"num_deleted":"0","num_feature":"32","num_nodes":"53","size_leaf_vector":"1"}},{"base_weights":[-6.502808E-1,1.0982326E0,-8.748281E-1,1.1690612E0,1.6249138E-1,-9.47857E-1,-3.621992E-1,1.18332826E-1,3.3524767E-2,7.680808E-2,-6.136517E-2,-9.7500426E-1,-6.003857E-1,4.7520378E-1,-6.980327E-1,-9.893479E-1,-4.8295784E-1,-1.3432852E-2,-8.4855574E-1,-7.0743784E-2,7.7871794E-1,1.8921682E-1,-9.1877156E-1,-9.9321663E-1,-1.3297659E-2,3.7312675E-2,-7.555144E-1,8.953694E-2,-3.9504883E-1,-9.679307E-2,9.755384E-3,1.4622256E0,4.0833678E-2,1.3735323E-1,-6.228938E-1,-9.915931E-2,-2.767315E-1,-9.971311E-2,-1.1053468E-2,-8.709468E-2,-2.0972576E-3,-8.165511E-2,4.9164675E-2,5.41378E-4,1.8242095E-1,-7.4372455E-2,5.8430817E-2,-7.640374E-2,-5.8882614E-3,-6.784585E-2,4.164163E-2],"categories":[],"categories_nodes":[],"categories_segments":[],"categories_sizes":[],"default_left":[0,0,0,0,0,0,0,0,0,0,0,0,0,0,0,0,0,0,0,0,0,0,0,0,0,0,0,0,0,0,0,0,0,0,0,0,0,0,0,0,0,0,0,0,0,0,0,0,0,0,0],"id":15,"left_children":[1,3,5,7,9,11,13,-1,-1,-1,-1,15,17,19,21,23,25,27,29,-1,31,33,35,37,-1,-1,39,-1,41,-1,-1,43,45,-1,47,-1,49,-1,-1,-1,-1,-1,-1,-1,-1,-1,-1,-1,-1,-1,-1],"loss_changes":[1.3859177E2,2.4834824E0,1.130719E1,4.7462463E-2,2.3513446E0,1.9782715E0,1.1700132E1,0E0,0E0,0E0,0E0,1.2900391E0,3.2365532E0,4.9179378E0,5.904046E0,6.7111206E-1,2.393251E0,3.004116E0,1.8625727E0,0E0,5.0632505E0,7.2593436E0,8.2899284E-1,7.231293E-1,0E0,0E0,5.9172344E-1,0E0,2.6723225E0,0E0,0E0,2.7556906E0,2.9558835E0,0E0,3.242054E-1,0E0,1.3381997E0,0E0,0E0,0E0,0E0,0E0,0E0,0E0,0E0,0E0,0E0,0E0,0E0,0E0,0E0],"parents":[2147483647,0,0,1,1,2,2,3,3,4,4,5,5,6,6,11,11,12,12,13,13,14,14,15,15,16,16,17,17,18,18,20,20,21,21,22,22,23,23,26,26,28,28,31,31,32,32,34,34,36,36],"right_children":[2,4,6,8,10,12,14,-1,-1,-1,-1,16,18,20,22,24,26,28,30,-1,32,34,36,38,-1,-1,40,-1,42,-1,-1,44,46,-1,48,-1,50,-1,-1,-1,-1,-1,-1,-1,-1,-1,-1,-1,-1,-1,-1],"split_conditions":[-3.5017025E0,-1.4597496E0,1.6407202E0,1.2457305E0,4.2328444E-1,1.1138988E0,-7.2670496E-1,1.18332826E-1,3.3524767E-2,7.680808E-2,-6.136517E-2,4.9886E2,-1.2751178E-1,-4.2356706E-1,3.9E0,1.1088973E0,-5.345758E-1,-3.3292463E-1,1.1592227E0,-7.0743784E-2,8.176207E-1,-1.5617141E-1,1.4222267E0,8.929055E0,-1.3297659E-2,3.7312675E-2,6.024048E-1,8.953694E-2,5.427302E-1,-9.679307E-2,9.755384E-3,-2.3039113E-1,4.9601216E-3,1.3735323E-1,2.5528213E-1,-9.915931E-2,-1.0361851E0,-9.971311E-2,-1.1053468E-2,-8.709468E-2,-2.0972576E-3,-8.165511E-2,4.9164675E-2,5.41378E-4,1.8242095E-1,-7.4372455E-2,5.8430817E-2,-7.640374E-2,-5.8882614E-3,-6.784585E-2,4.164163E-2],"split_indices":[14,12,4,6,15,17,14,0,0,0,0,29,23,11,29,27,26,26,30,0,17,21,7,30,0,0,15,0,22,0,0,28,28,0,31,0,1,0,0,0,0,0,0,0,0,0,0,0,0,0,0],"split_type":[0,0,0,0,0,0,0,0,0,0,0,0,0,0,0,0,0,0,0,0,0,0,0,0,0,0,0,0,0,0,0,0,0,0,0,0,0,0,0,0,0,0,0,0,0,0,0,0,0,0,0],"sum_hessian":[3.4954153E2,3.9337322E1,3.1020422E2,3.6337505E1,2.9998186E0,2.7077997E2,3.942424E1,3.5314083E1,1.0234225E0,1.6908851E0,1.3089335E0,2.4948244E2,2.129754E1,1.1166215E1,2.8258028E1,2.4143372E2,8.04871E0,6.642153E0,1.4655387E1,2.0086591E0,9.157556E0,5.6581535E0,2.2599874E1,2.4018884E2,1.2448764E0,1.8545828E0,6.1941276E0,1.5661575E0,5.0759954E0,1.2992944E1,1.6624432E0,4.244343E0,4.913213E0,2.020423E0,3.6377306E0,1.9808691E1,2.7911835E0,2.3899928E2,1.1895645E0,5.192441E0,1.0016866E0,3.4941251E0,1.5818701E0,1.0467265E0,3.197616E0,1.8598605E0,3.053352E0,2.6259403E0,1.0117902E0,1.7804701E0,1.0107135E0],"tree_param":{"num_deleted":"0","num_feature":"32","num_nodes":"51","size_leaf_vector":"1"}},{"base_weights":[-6.104737E-1,1.0313927E0,-8.5997075E-1,1.1874504E0,-6.750461E-2,-9.326568E-1,-3.454554E-1,1.202515E-1,3.1738166E-2,7.468205E-1,-7.00757E-2,-9.6610653E-1,-5.138744E-1,5.7395566E-1,-6.605846E-1,9.9476546E-2,9.5304875E-3,9.521222E-4,-9.732719E-1,3.8942242E-1,-7.402677E-1,1.2897097E0,-2.917749E-1,7.9187594E-2,-8.618814E-1,-9.772526E-1,-1.9135417E-2,1.3460585E-1,-6.9335446E-2,-3.991026E-2,-8.9308316E-1,-1.2106323E-2,1.6353945E0,-7.088357E-2,6.2480457E-2,1.23528354E-1,-4.9078214E-1,-2.3992562E-1,-9.3976635E-1,-9.813544E-2,-1.4259032E-2,-6.934373E-2,9.557005E-2,-4.632493E-3,-9.571811E-2,1.8681622E-1,4.617983E-2,-8.09254E-2,4.3665398E-2,4.7276296E-2,-6.679584E-2,-9.8205365E-2,-9.628217E-3],"categories":[],"categories_nodes":[],"categories_segments":[],"categories_sizes":[],"default_left":[0,0,0,0,0,0,0,0,0,0,0,0,0,0,0,0,0,0,0,0,0,0,0,0,0,0,0,0,0,0,0,0,0,0,0,0,0,0,0,0,0,0,0,0,0,0,0,0,0,0,0,0,0],"id":16,"left_children":[1,3,5,7,9,11,13,-1,-1,15,-1,17,19,21,23,-1,-1,-1,25,27,29,31,33,35,37,39,-1,-1,-1,41,43,-1,45,-1,-1,-1,47,49,51,-1,-1,-1,-1,-1,-1,-1,-1,-1,-1,-1,-1,-1,-1],"loss_changes":[1.3465164E2,7.545185E0,1.0299301E1,1.18652344E-1,3.8026652E0,2.981308E0,1.1025209E1,0E0,0E0,4.327855E-1,0E0,1.6085205E0,4.480442E0,6.519803E0,4.2125034E0,0E0,0E0,0E0,5.198822E-1,5.8673944E0,1.7555437E0,2.934781E0,2.4699163E0,5.132333E0,8.383484E-1,6.32843E-1,0E0,0E0,0E0,3.2942758E0,6.987791E-1,0E0,3.874197E-1,0E0,0E0,0E0,1.9235827E0,1.4709886E0,5.89365E-1,0E0,0E0,0E0,0E0,0E0,0E0,0E0,0E0,0E0,0E0,0E0,0E0,0E0,0E0],"parents":[2147483647,0,0,1,1,2,2,3,3,4,4,5,5,6,6,9,9,11,11,12,12,13,13,14,14,18,18,19,19,20,20,21,21,22,22,23,23,24,24,25,25,29,29,30,30,32,32,36,36,37,37,38,38],"right_children":[2,4,6,8,10,12,14,-1,-1,16,-1,18,20,22,24,-1,-1,-1,26,28,30,32,34,36,38,40,-1,-1,-1,42,44,-1,46,-1,-1,-1,48,50,52,-1,-1,-1,-1,-1,-1,-1,-1,-1,-1,-1,-1,-1,-1],"split_conditions":[-3.01816E0,-1.4597496E0,1.6407202E0,1.6410377E0,3.2228738E-1,1.1138988E0,-7.2670496E-1,1.202515E-1,3.1738166E-2,2.362364E-1,-7.00757E-2,-3.8439186E0,-4.394857E-1,-1.1394779E-1,4E0,9.9476546E-2,9.5304875E-3,9.521222E-4,3.0133002E0,-1.4128906E-1,1.2211194E0,1.0391701E-1,5.7148E2,-1.0439292E-1,-1.7249862E0,1E3,-1.9135417E-2,1.3460585E-1,-6.9335446E-2,2.51303E-1,-5.6986296E-1,-1.2106323E-2,1.2442728E-1,-7.088357E-2,6.2480457E-2,1.23528354E-1,3.6814815E-1,5.867711E-1,1.7906795E0,-9.813544E-2,-1.4259032E-2,-6.934373E-2,9.557005E-2,-4.632493E-3,-9.571811E-2,1.8681622E-1,4.617983E-2,-8.09254E-2,4.3665398E-2,4.7276296E-2,-6.679584E-2,-9.8205365E-2,-9.628217E-3],"split_indices":[14,12,4,6,15,17,14,0,0,7,0,3,8,20,29,0,0,0,7,23,17,31,29,26,19,29,0,0,0,16,26,0,8,0,0,0,20,16,19,0,0,0,0,0,0,0,0,0,0,0,0,0,0],"split_type":[0,0,0,0,0,0,0,0,0,0,0,0,0,0,0,0,0,0,0,0,0,0,0,0,0,0,0,0,0,0,0,0,0,0,0,0,0,0,0,0,0,0,0,0,0,0,0,0,0,0,0,0,0],"sum_hessian":[3.2554135E2,4.2530014E1,2.8301135E2,3.7170704E1,5.359309E0,2.47267E2,3.5744354E1,3.6162487E1,1.0082179E0,2.2660112E0,3.0932977E0,2.2776744E2,1.9499552E1,8.914463E0,2.6829891E1,1.2597461E0,1.0062652E0,1.6582167E0,2.2610922E2,3.7634556E0,1.5736096E1,4.6118336E0,4.3026295E0,5.868729E0,2.096116E1,2.247154E2,1.3938391E0,1.8690188E0,1.8944368E0,3.0444522E0,1.2691645E1,1.0355285E0,3.5763047E0,3.1128674E0,1.189762E0,1.552481E0,4.316248E0,2.7868786E0,1.8174282E1,2.2344157E2,1.273808E0,2.0212154E0,1.0232369E0,1.0143548E0,1.167729E1,2.490516E0,1.0857887E0,3.3078098E0,1.0084381E0,1.006508E0,1.7803706E0,1.7150192E1,1.0240909E0],"tree_param":{"num_deleted":"0","num_feature":"32","num_nodes":"53","size_leaf_vector":"1"}},{"base_weights":[-5.9411E-1,9.478561E-1,-8.3787763E-1,1.1245974E0,6.748482E-2,-3.8580748E-1,-9.196303E-1,4.841899E-1,1.1583545E-1,-8.258975E-2,6.868874E-1,-7.444608E-1,3.1159505E-1,-9.588599E-1,-3.7577546E-1,6.84747E-2,3.0262524E-3,1.1151638E-1,-1.1688845E-2,-8.6236286E-1,2.3342581E-2,1.2090801E0,-3.549205E-1,-9.900482E-1,-5.370679E-1,3.411911E-1,-7.71976E-1,-8.982236E-1,-2.9305306E-3,1.03668764E-1,-7.170404E-2,-3.691858E-2,1.841085E0,8.650692E-2,-6.2038994E-1,-9.9510056E-1,-7.222922E-3,-8.322605E-1,-2.2337236E-2,7.9040426E-1,-6.4734355E-2,-9.307107E-2,1.8334659E-3,-9.371408E-2,-3.5579305E-3,4.4554517E-2,2.5340983E-1,-8.7030984E-2,-2.2693188E-3,-6.340789E-3,-9.999927E-2,-2.1144163E-3,-9.1805026E-2,1.1595447E-1,-4.995453E-2,1.2149977E-1,-3.6067218E-2],"categories":[],"categories_nodes":[],"categories_segments":[],"categories_sizes":[],"default_left":[0,0,0,0,0,0,0,0,0,0,0,0,0,0,0,0,0,0,0,0,0,0,0,0,0,0,0,0,0,0,0,0,0,0,0,0,0,0,0,0,0,0,0,0,0,0,0,0,0,0,0,0,0,0,0,0,0],"id":17,"left_children":[1,3,5,7,9,11,13,15,-1,-1,17,19,21,23,25,-1,-1,-1,-1,27,29,31,33,35,37,39,41,43,-1,-1,-1,-1,45,-1,47,49,-1,51,53,55,-1,-1,-1,-1,-1,-1,-1,-1,-1,-1,-1,-1,-1,-1,-1,-1,-1],"loss_changes":[1.1338931E2,6.3596764E0,9.224319E0,1.8240356E-1,4.982561E0,1.0591294E1,4.307251E0,2.9242885E-1,0E0,0E0,1.9403396E0,2.5227823E0,9.264738E0,2.1441193E0,4.911615E0,0E0,0E0,0E0,0E0,6.9041634E-1,4.234894E0,7.184806E0,3.5321665E0,8.009033E-1,2.4414964E0,3.405878E0,1.3776665E0,7.3773766E-1,0E0,0E0,0E0,0E0,3.5362186E0,0E0,1.2019215E0,7.8944397E-1,0E0,6.9467926E-1,4.486995E0,2.848416E0,0E0,0E0,0E0,0E0,0E0,0E0,0E0,0E0,0E0,0E0,0E0,0E0,0E0,0E0,0E0,0E0,0E0],"parents":[2147483647,0,0,1,1,2,2,3,3,4,4,5,5,6,6,7,7,10,10,11,11,12,12,13,13,14,14,19,19,20,20,21,21,22,22,23,23,24,24,25,25,26,26,27,27,32,32,34,34,35,35,37,37,38,38,39,39],"right_children":[2,4,6,8,10,12,14,16,-1,-1,18,20,22,24,26,-1,-1,-1,-1,28,30,32,34,36,38,40,42,44,-1,-1,-1,-1,46,-1,48,50,-1,52,54,56,-1,-1,-1,-1,-1,-1,-1,-1,-1,-1,-1,-1,-1,-1,-1,-1,-1],"split_conditions":[-2.6685543E0,-1.8749433E0,-8.130821E-1,9.349823E-2,2.88E0,7.503356E-1,2.744044E0,1.2844934E-1,1.1583545E-1,-8.258975E-2,-7.493817E-2,1.1955601E0,-4.4895285E-1,2.7946E2,-1.1016445E-1,6.84747E-2,3.0262524E-3,1.1151638E-1,-1.1688845E-2,9.948296E-1,-1.1793326E0,-1.8399924E0,8.2700545E-1,8.929055E0,1.2606052E0,1.3897803E-1,1.0348538E0,5.411988E-1,-2.9305306E-3,1.03668764E-1,-7.170404E-2,-3.691858E-2,-1.2812802E0,8.650692E-2,6.040862E-2,-5.598655E0,-7.222922E-3,-2.9367363E-1,1.5667768E0,1.1941774E0,-6.4734355E-2,-9.307107E-2,1.8334659E-3,-9.371408E-2,-3.5579305E-3,4.4554517E-2,2.5340983E-1,-8.7030984E-2,-2.2693188E-3,-6.340789E-3,-9.999927E-2,-2.1144163E-3,-9.1805026E-2,1.1595447E-1,-4.995453E-2,1.2149977E-1,-3.6067218E-2],"split_indices":[14,10,14,31,29,4,4,25,0,0,7,30,12,29,8,0,0,0,0,12,3,14,4,30,7,27,30,27,0,0,0,0,12,0,28,7,0,21,7,2,0,0,0,0,0,0,0,0,0,0,0,0,0,0,0,0,0],"split_type":[0,0,0,0,0,0,0,0,0,0,0,0,0,0,0,0,0,0,0,0,0,0,0,0,0,0,0,0,0,0,0,0,0,0,0,0,0,0,0,0,0,0,0,0,0,0,0,0,0,0,0,0,0,0,0,0,0],"sum_hessian":[2.985496E2,4.0360237E1,2.5818936E2,3.338128E1,6.9789577E0,4.0416462E1,2.177729E2,2.4397676E0,3.0941511E1,2.7210011E0,4.2579565E0,2.6645828E1,1.3770633E1,2.0240952E2,1.536338E1,1.3394626E0,1.100305E0,2.5250995E0,1.7328571E0,2.2992067E1,3.6537619E0,5.521594E0,8.249039E0,1.8721884E2,1.5190672E1,5.5175805E0,9.845799E0,2.1968176E1,1.0238916E0,1.3735758E0,2.280186E0,1.6977525E0,3.8238413E0,1.0705568E0,7.178482E0,1.8611017E2,1.1086788E0,9.262081E0,5.928591E0,3.931461E0,1.5861193E0,8.051081E0,1.7947195E0,2.0937258E1,1.0309184E0,1.8139505E0,2.0098908E0,4.7402825E0,2.4381995E0,1.0450437E0,1.8506512E2,1.0051501E0,8.256931E0,1.2939832E0,4.634608E0,2.8314886E0,1.0999725E0],"tree_param":{"num_deleted":"0","num_feature":"32","num_nodes":"57","size_leaf_vector":"1"}},{"base_weights":[-6.330409E-1,8.758183E-1,-8.6572826E-1,1.0761665E0,3.675837E-2,-5.0600976E-1,-9.322196E-1,1.1024164E0,2.8455187E-2,7.1383816E-1,-5.9916645E-1,-7.748224E-1,3.9575245E-2,-9.4732153E-1,3.4734884E-1,1.13452695E-1,4.386168E-2,1.05114594E-1,-2.0240385E-2,-8.243929E-2,1.2983582E-2,-9.006177E-1,-3.6794632E-3,-6.352816E-1,5.8930415E-1,-9.5625585E-1,-8.494227E-2,1.1135452E-1,-5.604696E-2,-9.399475E-1,-2.411654E-3,9.544664E-2,-7.171581E-2,-8.133381E-2,1.1152253E-2,-3.844785E-1,1.402316E0,-9.736752E-1,-5.190074E-1,-5.5229735E-2,4.6002656E-2,-9.8262526E-2,-1.1147889E-2,4.784867E-2,-7.706254E-2,3.1309363E-1,-1.5450773E-3,-3.07772E-2,-9.83385E-2,9.665456E-2,-8.013711E-2],"categories":[],"categories_nodes":[],"categories_segments":[],"categories_sizes":[],"default_left":[0,0,0,0,0,0,0,0,0,0,0,0,0,0,0,0,0,0,0,0,0,0,0,0,0,0,0,0,0,0,0,0,0,0,0,0,0,0,0,0,0,0,0,0,0,0,0,0,0,0,0],"id":18,"left_children":[1,3,5,7,9,11,13,15,-1,17,19,21,23,25,27,-1,-1,-1,-1,-1,-1,29,31,33,35,37,39,-1,-1,41,-1,-1,-1,-1,-1,43,45,47,49,-1,-1,-1,-1,-1,-1,-1,-1,-1,-1,-1,-1],"loss_changes":[9.840993E1,6.2910576E0,5.304001E0,3.17276E-1,3.998953E0,5.8764296E0,4.2444305E0,1.21406555E-1,0E0,1.5952978E0,8.985573E-1,2.5917263E0,5.608266E0,1.4637756E0,2.7770214E0,0E0,0E0,0E0,0E0,0E0,0E0,7.700386E-1,3.9357567E0,9.9684334E-1,7.1051235E0,1.005539E0,1.0572823E0,0E0,0E0,6.676636E-1,0E0,0E0,0E0,0E0,0E0,1.8877602E0,1.1652964E1,9.2344666E-1,4.8607845E0,0E0,0E0,0E0,0E0,0E0,0E0,0E0,0E0,0E0,0E0,0E0,0E0],"parents":[2147483647,0,0,1,1,2,2,3,3,4,4,5,5,6,6,7,7,9,9,10,10,11,11,12,12,13,13,14,14,21,21,22,22,23,23,24,24,25,25,26,26,29,29,35,35,36,36,37,37,38,38],"right_children":[2,4,6,8,10,12,14,16,-1,18,20,22,24,26,28,-1,-1,-1,-1,-1,-1,30,32,34,36,38,40,-1,-1,42,-1,-1,-1,-1,-1,44,46,48,50,-1,-1,-1,-1,-1,-1,-1,-1,-1,-1,-1,-1],"split_conditions":[-2.6685543E0,-1.7620344E0,-8.130821E-1,-1.4597496E0,-8.5545264E-2,7.503356E-1,4.747222E0,1.8055528E0,2.8455187E-2,1.2579613E0,1.13045715E-1,1.1955601E0,-8.569344E-2,5.145548E0,-3.1665254E-1,1.13452695E-1,4.386168E-2,1.05114594E-1,-2.0240385E-2,-8.243929E-2,1.2983582E-2,1.0500082E0,-1.1793326E0,2.2680619E0,1.8520291E-1,4.9886E2,-4.1164126E-2,1.1135452E-1,-5.604696E-2,4.8290107E-1,-2.411654E-3,9.544664E-2,-7.171581E-2,-8.133381E-2,1.1152253E-2,-5.4748308E-2,5.8514E4,-1.8978894E0,-1.2179539E0,-5.5229735E-2,4.6002656E-2,-9.8262526E-2,-1.1147889E-2,4.784867E-2,-7.706254E-2,3.1309363E-1,-1.5450773E-3,-3.07772E-2,-9.83385E-2,9.665456E-2,-8.013711E-2],"split_indices":[14,10,14,12,20,4,4,27,0,5,22,30,21,30,16,0,0,0,0,0,0,12,3,17,5,29,5,0,0,23,0,0,0,0,0,27,0,19,13,0,0,0,0,0,0,0,0,0,0,0,0],"split_type":[0,0,0,0,0,0,0,0,0,0,0,0,0,0,0,0,0,0,0,0,0,0,0,0,0,0,0,0,0,0,0,0,0,0,0,0,0,0,0,0,0,0,0,0,0,0,0,0,0,0,0],"sum_hessian":[2.7713675E2,3.6658848E1,2.4047792E2,2.9364655E1,7.2941914E0,3.8859257E1,2.0161865E2,2.8042162E1,1.3224918E0,3.4734411E0,3.8207502E0,2.575129E1,1.3107969E1,1.9952347E2,2.0951908E0,2.6071827E1,1.9703363E0,2.4311826E0,1.0422584E0,2.8189733E0,1.0017769E0,2.1995329E1,3.755961E0,5.814437E0,7.293532E0,1.9736983E2,2.1536312E0,1.013328E0,1.0818627E0,2.0981476E1,1.0138527E0,1.4589462E0,2.2970147E0,4.623088E0,1.1913488E0,3.5584736E0,3.7350585E0,1.8862836E2,8.741482E0,1.1521344E0,1.0014967E0,1.9776627E1,1.2048489E0,1.0261316E0,2.532342E0,1.138535E0,2.5965235E0,3.1808462E0,1.8544751E2,1.0091515E0,7.732331E0],"tree_param":{"num_deleted":"0","num_feature":"32","num_nodes":"51","size_leaf_vector":"1"}},{"base_weights":[-5.77405E-1,8.5323817E-1,-8.1311876E-1,1.0741898E0,-2.9517094E-2,-3.6648452E-1,-9.0300095E-1,1.1064327E-1,1.820699E-2,7.8567576E-1,-5.88536E-1,-5.654852E-1,4.2604008E-1,-9.481116E-1,-3.9105836E-1,1.9624926E-2,9.6668564E-2,-8.3391845E-2,1.8437145E-2,2.7906367E-1,-8.7578046E-1,1.323794E0,-3.1952167E-1,-9.588917E-1,7.2046095E-3,8.496462E-1,-6.815089E-1,-6.252737E-1,1.103244E0,-9.872949E-2,-2.4212529E-1,1.7872885E-1,1.4629664E-2,5.2389093E-2,-7.745515E-2,-4.1442394E-1,-9.7951686E-1,-2.358294E-2,1.627461E-1,-8.74172E-1,6.662059E-2,-1.453678E-3,-7.736032E-2,1.9111644E-1,-6.111457E-2,-7.181739E-2,4.453234E-2,7.817526E-2,-7.265072E-2,-9.844019E-2,-4.0175255E-2,-9.4425626E-2,-3.9652255E-3],"categories":[],"categories_nodes":[],"categories_segments":[],"categories_sizes":[],"default_left":[0,0,0,0,0,0,0,0,0,0,0,0,0,0,0,0,0,0,0,0,0,0,0,0,0,0,0,0,0,0,0,0,0,0,0,0,0,0,0,0,0,0,0,0,0,0,0,0,0,0,0,0,0],"id":19,"left_children":[1,3,5,7,9,11,13,-1,-1,15,17,19,21,23,25,-1,-1,-1,-1,27,29,31,33,35,-1,37,39,41,43,-1,45,-1,-1,-1,-1,47,49,-1,-1,51,-1,-1,-1,-1,-1,-1,-1,-1,-1,-1,-1,-1,-1],"loss_changes":[8.744621E1,7.224617E0,8.556152E0,6.477394E-1,4.2702413E0,6.355503E0,3.8694763E0,0E0,0E0,2.1863937E-1,1.2022744E0,8.477985E0,6.0129576E0,1.9170532E0,6.550516E0,0E0,0E0,0E0,0E0,7.5471306E0,1.4016113E0,1.9125743E0,2.465934E0,1.4621124E0,0E0,3.4135306E0,4.212938E0,4.4397676E-1,8.336115E0,0E0,1.8905219E0,0E0,0E0,0E0,0E0,3.481581E0,5.480957E-2,0E0,0E0,7.033453E-1,0E0,0E0,0E0,0E0,0E0,0E0,0E0,0E0,0E0,0E0,0E0,0E0,0E0],"parents":[2147483647,0,0,1,1,2,2,3,3,4,4,5,5,6,6,9,9,10,10,11,11,12,12,13,13,14,14,19,19,20,20,21,21,22,22,23,23,25,25,26,26,27,27,28,28,30,30,35,35,36,36,39,39],"right_children":[2,4,6,8,10,12,14,-1,-1,16,18,20,22,24,26,-1,-1,-1,-1,28,30,32,34,36,-1,38,40,42,44,-1,46,-1,-1,-1,-1,48,50,-1,-1,52,-1,-1,-1,-1,-1,-1,-1,-1,-1,-1,-1,-1,-1],"split_conditions":[-2.6685543E0,-1.9306394E0,-8.130821E-1,1.6884737E0,-1.6023588E-1,1.82E2,6.327159E-1,1.1064327E-1,1.820699E-2,-1.0273471E0,3.414927E0,6.604E4,-5.0432134E-1,5.29E2,-1.1977733E0,1.9624926E-2,9.6668564E-2,-8.3391845E-2,1.8437145E-2,1.8520291E-1,1.5218328E0,1.8720673E-2,-4.9013302E-1,-1.5045385E0,7.2046095E-3,1.1516045E0,1.1593031E0,-8.199997E-1,1.7161367E-2,-9.872949E-2,5.997994E-1,1.7872885E-1,1.4629664E-2,5.2389093E-2,-7.745515E-2,-6.222178E-1,1.6884737E0,-2.358294E-2,1.627461E-1,1.109945E0,6.662059E-2,-1.453678E-3,-7.736032E-2,1.9111644E-1,-6.111457E-2,-7.181739E-2,4.453234E-2,7.817526E-2,-7.265072E-2,-9.844019E-2,-4.0175255E-2,-9.4425626E-2,-3.9652255E-3],"split_indices":[14,12,14,17,15,29,20,0,0,6,17,0,6,29,13,0,0,0,0,5,5,19,12,19,0,7,19,7,20,0,18,0,0,0,0,22,17,0,0,22,0,0,0,0,0,0,0,0,0,0,0,0,0],"split_type":[0,0,0,0,0,0,0,0,0,0,0,0,0,0,0,0,0,0,0,0,0,0,0,0,0,0,0,0,0,0,0,0,0,0,0,0,0,0,0,0,0,0,0,0,0,0,0,0,0,0,0,0,0],"sum_hessian":[2.562559E2,3.5877983E1,2.2037791E2,2.8522104E1,7.3558793E0,3.777035E1,1.8260756E2,2.729537E1,1.2267342E0,2.82738E0,4.528499E0,3.0418764E1,7.3515873E0,1.6703685E2,1.5570704E1,1.1539472E0,1.6734328E0,3.3773289E0,1.1511704E0,8.200268E0,2.2218496E1,2.9834986E0,4.3680887E0,1.6534964E2,1.6872057E0,2.5884535E0,1.2982251E1,4.0250707E0,4.175197E0,1.8418926E1,3.7995696E0,1.7692171E0,1.2142814E0,1.4777316E0,2.890357E0,6.8049297E0,1.5854472E2,1.3714033E0,1.2170502E0,1.1665914E1,1.3163375E0,1.0011016E0,3.023969E0,2.7598274E0,1.4153699E0,2.218556E0,1.5810138E0,1.0966516E0,5.708278E0,1.5651753E2,2.0271897E0,1.0640787E1,1.0251269E0],"tree_param":{"num_deleted":"0","num_feature":"32","num_nodes":"53","size_leaf_vector":"1"}},{"base_weights":[-5.942705E-1,9.539782E-1,-8.001162E-1,1.0557749E0,1.7473185E-1,-2.4924931E-1,-9.1320604E-1,4.643632E-1,1.0917991E-1,-4.7988188E-2,8.1878446E-2,-7.00812E-1,3.1160983E-1,-9.290011E-1,2.2193882E-1,8.570537E-3,6.0410358E-2,-8.583483E-1,1.5418328E-1,1.0366156E0,-1.5986007E-1,1.8281711E-2,-9.412885E-1,-5.5722386E-2,9.540471E-2,-9.6709535E-2,4.053315E-2,9.399064E-2,-6.3645825E-2,1.5553944E0,-1.4735406E-4,4.9097857E-1,-7.489353E-1,-1.7623146E-1,-9.5703995E-1,2.2572841E-2,1.9577962E-1,6.228447E-2,-6.04328E-2,8.896751E-2,-2.547108E-2,-6.203975E-3,-8.6838506E-2,7.045325E-2,-7.267535E-2,-9.660512E-2,-3.0554194E-2],"categories":[],"categories_nodes":[],"categories_segments":[],"categories_sizes":[],"default_left":[0,0,0,0,0,0,0,0,0,0,0,0,0,0,0,0,0,0,0,0,0,0,0,0,0,0,0,0,0,0,0,0,0,0,0,0,0,0,0,0,0,0,0,0,0,0,0],"id":20,"left_children":[1,3,5,7,9,11,13,15,-1,-1,-1,17,19,21,23,-1,-1,25,27,29,31,-1,33,-1,-1,-1,-1,-1,-1,35,37,39,41,43,45,-1,-1,-1,-1,-1,-1,-1,-1,-1,-1,-1,-1],"loss_changes":[7.5931274E1,2.0472813E0,1.277533E1,1.8932343E-2,2.2686474E0,9.570541E0,3.304367E0,1.1529517E-1,0E0,0E0,0E0,2.9291496E0,6.0321136E0,2.5029602E0,2.3447707E0,0E0,0E0,2.822422E0,3.1318028E0,3.709465E0,4.6869864E0,0E0,1.8669281E0,0E0,0E0,0E0,0E0,0E0,0E0,2.0174866E0,1.6184772E0,1.9974672E0,4.638195E-1,2.7586124E0,6.7515564E-1,0E0,0E0,0E0,0E0,0E0,0E0,0E0,0E0,0E0,0E0,0E0,0E0],"parents":[2147483647,0,0,1,1,2,2,3,3,4,4,5,5,6,6,7,7,11,11,12,12,13,13,14,14,17,17,18,18,19,19,20,20,22,22,29,29,30,30,31,31,32,32,33,33,34,34],"right_children":[2,4,6,8,10,12,14,16,-1,-1,-1,18,20,22,24,-1,-1,26,28,30,32,-1,34,-1,-1,-1,-1,-1,-1,36,38,40,42,44,46,-1,-1,-1,-1,-1,-1,-1,-1,-1,-1,-1,-1],"split_conditions":[-3.5017025E0,-1.8749433E0,-8.900852E-1,9.349823E-2,-7.257619E-2,7.503356E-1,5.145548E0,-9.400911E-2,1.0917991E-1,-4.7988188E-2,8.1878446E-2,1.1955601E0,5.8514E4,-5.598655E0,2.635995E-1,8.570537E-3,6.0410358E-2,4.8290107E-1,-1.1793326E0,1.4907184E-1,-1.7447774E0,1.8281711E-2,-9.7163254E-1,-5.5722386E-2,9.540471E-2,-9.6709535E-2,4.053315E-2,9.399064E-2,-6.3645825E-2,-5.6570864E-1,-2.2434871E0,1.2871335E-2,-1.4989014E0,-1.2090236E0,1.6884737E0,2.2572841E-2,1.9577962E-1,6.228447E-2,-6.04328E-2,8.896751E-2,-2.547108E-2,-6.203975E-3,-8.6838506E-2,7.045325E-2,-7.267535E-2,-9.660512E-2,-3.0554194E-2],"split_indices":[14,10,14,31,21,4,30,23,0,0,0,30,0,7,2,0,0,23,3,8,3,0,21,0,0,0,0,0,0,3,14,15,15,9,17,0,0,0,0,0,0,0,0,0,0,0,0],"split_type":[0,0,0,0,0,0,0,0,0,0,0,0,0,0,0,0,0,0,0,0,0,0,0,0,0,0,0,0,0,0,0,0,0,0,0,0,0,0,0,0,0,0,0,0,0,0,0],"sum_hessian":[2.3485793E2,2.7134432E1,2.0772348E2,2.3685421E1,3.4490094E0,3.592667E1,1.7179681E2,2.1574042E0,2.1528017E1,1.8368955E0,1.6121141E0,1.976434E1,1.616233E1,1.6961826E2,2.1785636E0,1.0164428E0,1.1409613E0,1.6685963E1,3.078378E0,5.8964067E0,1.02659235E1,1.702364E0,1.679159E2,1.1710863E0,1.0074772E0,1.5579919E1,1.1060431E0,1.4493022E0,1.6290758E0,3.5965247E0,2.2998817E0,4.956391E0,5.3095326E0,3.6332932E0,1.642826E2,1.1982085E0,2.3983164E0,1.1171044E0,1.1827774E0,3.1037977E0,1.8525933E0,1.0116161E0,4.297917E0,1.2898871E0,2.343406E0,1.6156508E2,2.7175212E0],"tree_param":{"num_deleted":"0","num_feature":"32","num_nodes":"47","size_leaf_vector":"1"}},{"base_weights":[-5.6111753E-1,8.795327E-1,-7.846973E-1,1.0467483E0,7.868755E-2,-3.0797848E-1,-8.9528906E-1,1.0835737E-1,3.812364E-2,5.962917E-1,-7.2902076E-2,-6.804706E-1,2.3635815E-1,-9.170189E-1,4.4149294E-1,9.9919364E-2,-2.2581112E-2,-8.109402E-1,-5.2206095E-2,1.0157734E0,-3.02415E-1,-9.4831944E-1,-4.9307415E-1,1.2264327E-1,-5.5117037E-2,-2.9461226E-1,-9.500513E-2,-7.004085E-2,6.9897E-2,1.3771026E0,-5.249179E-2,-5.8201265E-1,5.579544E-1,-9.8781604E-1,-4.639788E-1,4.7280684E-1,-8.1873935E-1,-7.904213E-2,6.728475E-2,-9.094561E-3,1.7206469E-1,7.4367136E-2,-9.033158E-2,1.7224375E-2,6.640041E-2,-1.0022199E-1,-3.6128026E-2,6.638073E-2,-6.630307E-2,1.3170944E-1,-3.1670295E-2,-9.089064E-2,-1.6489314E-3],"categories":[],"categories_nodes":[],"categories_segments":[],"categories_sizes":[],"default_left":[0,0,0,0,0,0,0,0,0,0,0,0,0,0,0,0,0,0,0,0,0,0,0,0,0,0,0,0,0,0,0,0,0,0,0,0,0,0,0,0,0,0,0,0,0,0,0,0,0,0,0,0,0],"id":21,"left_children":[1,3,5,7,9,11,13,-1,-1,15,-1,17,19,21,23,-1,-1,25,27,29,31,33,35,-1,-1,37,-1,-1,-1,39,-1,41,43,45,47,49,51,-1,-1,-1,-1,-1,-1,-1,-1,-1,-1,-1,-1,-1,-1,-1,-1],"loss_changes":[7.15339E1,3.9376736E0,9.789993E0,1.935463E-1,3.0546253E0,7.7594447E0,4.8912582E0,0E0,0E0,1.6728472E0,0E0,1.8026094E0,7.0125694E0,1.553421E0,3.1268554E0,0E0,0E0,1.0538273E0,2.894516E0,4.483838E0,2.7813234E0,2.2341537E0,4.336236E0,0E0,0E0,3.1175234E0,0E0,0E0,0E0,3.055645E0,0E0,4.163175E0,8.966684E-3,8.0433655E-1,3.2457576E0,2.9498456E0,6.906619E-1,0E0,0E0,0E0,0E0,0E0,0E0,0E0,0E0,0E0,0E0,0E0,0E0,0E0,0E0,0E0,0E0],"parents":[2147483647,0,0,1,1,2,2,3,3,4,4,5,5,6,6,9,9,11,11,12,12,13,13,14,14,17,17,18,18,19,19,20,20,21,21,22,22,25,25,29,29,31,31,32,32,33,33,34,34,35,35,36,36],"right_children":[2,4,6,8,10,12,14,-1,-1,16,-1,18,20,22,24,-1,-1,26,28,30,32,34,36,-1,-1,38,-1,-1,-1,40,-1,42,44,46,48,50,52,-1,-1,-1,-1,-1,-1,-1,-1,-1,-1,-1,-1,-1,-1,-1,-1],"split_conditions":[-3.01816E0,-1.8749433E0,-8.130821E-1,1.8055528E0,5.302296E-1,7.503356E-1,4.747222E0,1.0835737E-1,3.812364E-2,6.463111E-1,-7.2902076E-2,4.4848585E-1,5.6151E4,2.5089684E0,-4.750412E-1,9.9919364E-2,-2.2581112E-2,-1.7189388E0,-3.1926158E-1,1.2220174E0,1.4017311E0,2.7946E2,3.9E0,1.2264327E-1,-5.5117037E-2,-1.9548599E0,-9.500513E-2,-7.004085E-2,6.9897E-2,-1.0274378E0,-5.249179E-2,-1.4281843E0,-1.7927032E0,1.4027141E0,-1.3108732E0,4.3456284E-3,4.5973802E-1,-7.904213E-2,6.728475E-2,-9.094561E-3,1.7206469E-1,7.4367136E-2,-9.033158E-2,1.7224375E-2,6.640041E-2,-1.0022199E-1,-3.6128026E-2,6.638073E-2,-6.630307E-2,1.3170944E-1,-3.1670295E-2,-9.089064E-2,-1.6489314E-3],"split_indices":[14,10,14,27,16,4,4,0,0,15,0,25,0,4,16,0,0,14,4,3,16,29,29,0,0,14,0,0,0,3,0,10,3,17,13,26,25,0,0,0,0,0,0,0,0,0,0,0,0,0,0,0,0],"split_type":[0,0,0,0,0,0,0,0,0,0,0,0,0,0,0,0,0,0,0,0,0,0,0,0,0,0,0,0,0,0,0,0,0,0,0,0,0,0,0,0,0,0,0,0,0,0,0,0,0,0,0,0,0],"sum_hessian":[2.1894315E2,2.9019611E1,1.8992354E2,2.3752964E1,5.2666464E0,3.6475674E1,1.5344786E2,2.1912285E1,1.8406785E0,3.3692663E0,1.8973802E0,2.1507736E1,1.4967938E1,1.513024E2,2.1454601E0,2.1165571E0,1.2527092E0,1.7568567E1,3.9391687E0,5.7558713E0,9.212067E0,1.397477E2,1.1554704E1,1.0665767E0,1.0788834E0,4.390502E0,1.3178066E1,2.1507955E0,1.7883732E0,4.7484293E0,1.0074422E0,7.1968193E0,2.0152473E0,1.2824979E2,1.1497921E1,2.7996082E0,8.7550955E0,3.0238276E0,1.3666745E0,1.0399104E0,3.7085187E0,1.1475451E0,6.0492744E0,1.0005075E0,1.0147398E0,1.2478147E2,3.4683127E0,1.3746419E0,1.0123279E1,1.0299524E0,1.769656E0,7.7509947E0,1.0041006E0],"tree_param":{"num_deleted":"0","num_feature":"32","num_nodes":"53","size_leaf_vector":"1"}},{"base_weights":[-5.526314E-1,5.943396E-1,-8.380893E-1,9.589634E-1,-5.8628242E-2,-4.1906804E-1,-8.981809E-1,1.0930798E0,1.2816066E-1,7.2727513E-1,-3.330641E-1,-5.768287E-1,6.176117E-1,-9.166874E-1,5.401187E-2,1.12867795E-1,1.7445892E-2,6.842198E-2,-5.5306327E-2,1.09759286E-1,1.0801426E-2,6.978073E-2,-5.956736E-1,5.9045326E-2,-6.723881E-1,-5.466764E-2,1.4072616E-1,-9.293284E-1,1.75681E-3,-8.2848626E-1,1.1891675E-1,-7.638638E-1,4.5899134E-2,-9.4193727E-1,-2.588942E-1,-8.961203E-2,-1.8404491E-2,8.391375E-2,-6.0764708E-2,2.8111098E-2,-8.4693655E-2,-5.261497E-3,-9.487634E-2,-6.7074575E-2,4.651877E-2],"categories":[],"categories_nodes":[],"categories_segments":[],"categories_sizes":[],"default_left":[0,0,0,0,0,0,0,0,0,0,0,0,0,0,0,0,0,0,0,0,0,0,0,0,0,0,0,0,0,0,0,0,0,0,0,0,0,0,0,0,0,0,0,0,0],"id":22,"left_children":[1,3,5,7,9,11,13,15,17,19,21,23,25,27,-1,-1,-1,-1,-1,-1,-1,-1,29,-1,31,-1,-1,33,-1,35,37,39,-1,41,43,-1,-1,-1,-1,-1,-1,-1,-1,-1,-1],"loss_changes":[6.644823E1,9.75264E0,3.6952133E0,2.778202E0,3.5929117E0,3.9797814E0,4.2361755E0,5.361786E-1,2.1864882E0,8.755553E-1,3.718532E0,2.59964E0,3.9037135E0,1.6594467E0,0E0,0E0,0E0,0E0,0E0,0E0,0E0,0E0,1.8059206E0,0E0,2.288E0,0E0,0E0,9.167404E-1,0E0,1.7794275E-1,2.287226E0,1.7741594E0,0E0,7.658539E-1,1.4790683E0,0E0,0E0,0E0,0E0,0E0,0E0,0E0,0E0,0E0,0E0],"parents":[2147483647,0,0,1,1,2,2,3,3,4,4,5,5,6,6,7,7,8,8,9,9,10,10,11,11,12,12,13,13,22,22,24,24,27,27,29,29,30,30,31,31,33,33,34,34],"right_children":[2,4,6,8,10,12,14,16,18,20,22,24,26,28,-1,-1,-1,-1,-1,-1,-1,-1,30,-1,32,-1,-1,34,-1,36,38,40,-1,42,44,-1,-1,-1,-1,-1,-1,-1,-1,-1,-1],"split_conditions":[-1.565226E0,-1.4281843E0,-8.130821E-1,5.1490736E-1,-1.0834205E0,1.140345E0,4.698405E0,8.063853E-1,-4.328989E0,-3.6547832E-2,-1.0800738E0,-1.5045385E0,-1.0069653E0,5.145548E0,5.401187E-2,1.12867795E-1,1.7445892E-2,6.842198E-2,-5.5306327E-2,1.09759286E-1,1.0801426E-2,6.978073E-2,1.02E2,5.9045326E-2,1.4769733E0,-5.466764E-2,1.4072616E-1,1.6716852E0,1.75681E-3,6.0187006E-1,7.716435E-1,-2.3945417E0,4.5899134E-2,-2.3086782E0,7.960113E-1,-8.961203E-2,-1.8404491E-2,8.391375E-2,-6.0764708E-2,2.8111098E-2,-8.4693655E-2,-5.261497E-3,-9.487634E-2,-6.7074575E-2,4.651877E-2],"split_indices":[14,10,14,16,19,15,5,26,14,23,7,19,14,30,0,0,0,0,0,0,0,0,29,0,11,0,0,15,0,24,7,3,0,15,6,0,0,0,0,0,0,0,0,0,0],"split_type":[0,0,0,0,0,0,0,0,0,0,0,0,0,0,0,0,0,0,0,0,0,0,0,0,0,0,0,0,0,0,0,0,0,0,0,0,0,0,0,0,0,0,0,0,0],"sum_hessian":[2.0042859E2,3.9726254E1,1.6070233E2,2.5190825E1,1.4535429E1,2.1155825E1,1.3954651E2,2.1417679E1,3.7731452E0,3.334974E0,1.1200456E1,1.8746574E1,2.4092503E0,1.3813184E2,1.4146751E0,2.0398535E1,1.0191438E0,2.0749989E0,1.6981465E0,1.603599E0,1.7313752E0,1.9375226E0,9.262933E0,1.026667E0,1.7719908E1,1.0980071E0,1.3112432E0,1.36293E2,1.8388374E0,6.866462E0,2.3964705E0,1.669491E1,1.024999E0,1.3337955E2,2.913447E0,5.8608303E0,1.0056316E0,1.125679E0,1.2707915E0,1.0539039E0,1.56410055E1,1.0823101E0,1.3229724E2,1.9040821E0,1.009365E0],"tree_param":{"num_deleted":"0","num_feature":"32","num_nodes":"45","size_leaf_vector":"1"}},{"base_weights":[-5.385121E-1,5.208457E-1,-8.186336E-1,8.962638E-1,-9.7130045E-2,-9.0396535E-1,-4.212602E-1,1.6705006E-1,9.742539E-1,-6.145356E-1,4.0931085E-1,-9.317494E-1,-6.98508E-2,-5.9939927E-1,3.1214553E-1,-4.8486196E-2,9.193065E-2,1.0122167E0,2.5479078E-2,-7.8720385E-1,2.8441032E-2,-2.4248824E-1,1.15212075E-1,-9.548604E-1,-1.8310726E-1,-7.386832E-2,9.2889585E-2,1.4260256E-1,-8.3794683E-1,7.689652E-1,-6.320241E-2,2.2821872E-2,1.0405802E-1,-8.852234E-3,-9.08421E-2,5.508421E-2,-5.742561E-1,-3.5658747E-1,-9.707431E-1,-7.506178E-2,9.556403E-2,7.480029E-1,-3.5100192E-1,5.784166E-2,-9.6082725E-2,1.2007897E0,-2.552472E-2,-7.2764896E-2,-3.3507086E-3,-7.324949E-2,4.8567273E-2,-1.02496995E-2,-9.792813E-2,-3.5221554E-2,1.4846784E-1,4.1466847E-2,-7.138041E-2,2.7869467E-2,1.5697889E-1],"categories":[],"categories_nodes":[],"categories_segments":[],"categories_sizes":[],"default_left":[0,0,0,0,0,0,0,0,0,0,0,0,0,0,0,0,0,0,0,0,0,0,0,0,0,0,0,0,0,0,0,0,0,0,0,0,0,0,0,0,0,0,0,0,0,0,0,0,0,0,0,0,0,0,0,0,0,0,0],"id":23,"left_children":[1,3,5,7,9,11,13,15,17,19,21,23,25,27,29,-1,-1,31,-1,33,-1,35,-1,37,39,-1,-1,41,43,45,-1,-1,-1,-1,-1,-1,47,49,51,-1,-1,53,55,-1,-1,57,-1,-1,-1,-1,-1,-1,-1,-1,-1,-1,-1,-1,-1],"loss_changes":[5.6491096E1,9.395217E0,4.69899E0,1.2622662E0,4.4610643E0,2.7727737E0,3.8917036E0,2.2248652E0,3.5469437E-1,1.5193689E0,4.5006022E0,1.874115E0,4.045109E0,4.218273E0,3.1597118E0,0E0,0E0,2.2879219E-1,0E0,5.350189E-1,0E0,1.7560142E0,0E0,7.4318695E-1,3.8087366E0,0E0,0E0,2.2013764E0,3.6308432E0,2.3537233E0,0E0,0E0,0E0,0E0,0E0,0E0,3.361516E-1,1.7948618E0,7.232132E-1,0E0,0E0,3.1436331E0,1.477882E0,0E0,0E0,7.30021E-1,0E0,0E0,0E0,0E0,0E0,0E0,0E0,0E0,0E0,0E0,0E0,0E0,0E0],"parents":[2147483647,0,0,1,1,2,2,3,3,4,4,5,5,6,6,7,7,8,8,9,9,10,10,11,11,12,12,13,13,14,14,17,17,19,19,21,21,23,23,24,24,27,27,28,28,29,29,36,36,37,37,38,38,41,41,42,42,45,45],"right_children":[2,4,6,8,10,12,14,16,18,20,22,24,26,28,30,-1,-1,32,-1,34,-1,36,-1,38,40,-1,-1,42,44,46,-1,-1,-1,-1,-1,-1,48,50,52,-1,-1,54,56,-1,-1,58,-1,-1,-1,-1,-1,-1,-1,-1,-1,-1,-1,-1,-1],"split_conditions":[-1.565226E0,-1.467433E0,1.2947501E0,5.861008E-1,-5.7125885E-2,1.4027141E0,8.45715E-1,4.853E1,1.8055528E0,1.8333219E0,2.0520644E0,7.832587E-1,5.5852705E-1,4E0,7.71755E-2,-4.8486196E-2,9.193065E-2,-1.0935738E0,2.5479078E-2,3.7519E4,2.8441032E-2,-1.0331235E0,1.15212075E-1,-1.467433E0,3.3356148E-1,-7.386832E-2,9.2889585E-2,-1.5617141E-1,-1.1461023E0,-6.818877E-2,-6.320241E-2,2.2821872E-2,1.0405802E-1,-8.852234E-3,-9.08421E-2,5.508421E-2,3.847527E-1,6.996231E-1,-1.0456007E0,-7.506178E-2,9.556403E-2,3.46008E-1,-2.9642865E-1,5.784166E-2,-9.6082725E-2,-6.025588E-1,-2.552472E-2,-7.2764896E-2,-3.3507086E-3,-7.324949E-2,4.8567273E-2,-1.02496995E-2,-9.792813E-2,-3.5221554E-2,1.4846784E-1,4.1466847E-2,-7.138041E-2,2.7869467E-2,1.5697889E-1],"split_indices":[14,10,4,4,21,17,7,29,27,1,4,23,5,29,26,0,0,24,0,0,0,7,0,10,4,0,0,21,14,25,0,0,0,0,0,0,24,15,20,0,0,25,25,0,0,25,0,0,0,0,0,0,0,0,0,0,0,0,0],"split_type":[0,0,0,0,0,0,0,0,0,0,0,0,0,0,0,0,0,0,0,0,0,0,0,0,0,0,0,0,0,0,0,0,0,0,0,0,0,0,0,0,0,0,0,0,0,0,0,0,0,0,0,0,0,0,0,0,0,0,0],"sum_hessian":[1.8792986E2,3.9121517E1,1.4880835E2,2.4056784E1,1.50647335E1,1.2145278E2,2.7355558E1,2.6278756E0,2.142891E1,7.3461227E0,7.718611E0,1.1742437E2,4.028411E0,2.2156595E1,5.1989627E0,1.5982633E0,1.0296123E0,1.9968363E1,1.4605454E0,6.2667236E0,1.0793992E0,4.469914E0,3.2486968E0,1.1364076E2,3.7836137E0,2.568649E0,1.4597619E0,5.488094E0,1.6668503E1,3.6287982E0,1.5701646E0,1.0130402E0,1.8955322E1,1.1823095E0,5.084414E0,1.1233684E0,3.3465455E0,3.5453413E0,1.1009542E2,2.7526376E0,1.0309759E0,2.233429E0,3.2546647E0,1.034726E0,1.5633776E1,2.4313138E0,1.1974845E0,2.3377664E0,1.008779E0,2.5414114E0,1.0039297E0,1.1987616E0,1.0889666E2,1.1050024E0,1.1284264E0,1.0004082E0,2.2542567E0,1.1965406E0,1.2347732E0],"tree_param":{"num_deleted":"0","num_feature":"32","num_nodes":"59","size_leaf_vector":"1"}},{"base_weights":[-5.3037477E-1,6.028135E-1,-7.5809824E-1,-2.3149383E-1,8.9040005E-1,-8.589866E-1,-2.3511918E-1,-4.712633E-1,6.0419638E-2,9.9580586E-1,2.2736438E-1,-6.1797258E-2,-8.9100957E-1,1.2262019E-1,-6.273431E-1,4.18774E-2,-8.345407E-2,1.0517322E0,1.1454008E-2,-3.6406394E-2,7.177694E-2,9.119831E-2,-7.6444104E-2,-9.2400014E-1,-3.400203E-1,-5.4405993E-1,6.151051E-1,-7.476479E-1,3.2339096E-2,1.1083622E-1,2.0483276E-2,-9.7883445E-1,-6.87424E-1,-6.535547E-1,8.092864E-2,-8.404546E-2,4.557536E-2,-5.1517135E-1,1.1562117E0,-8.514917E-1,-7.2846785E-3,-9.901267E-2,-2.8073955E-3,-9.3947634E-2,-3.530706E-2,2.5431518E-2,-8.508501E-2,-1.537237E-2,-6.016035E-2,1.482787E-1,-1.5333267E-2,-9.128969E-2,-1.7567245E-2],"categories":[],"categories_nodes":[],"categories_segments":[],"categories_sizes":[],"default_left":[0,0,0,0,0,0,0,0,0,0,0,0,0,0,0,0,0,0,0,0,0,0,0,0,0,0,0,0,0,0,0,0,0,0,0,0,0,0,0,0,0,0,0,0,0,0,0,0,0,0,0,0,0],"id":24,"left_children":[1,3,5,7,9,11,13,15,-1,17,19,21,23,25,27,-1,-1,29,-1,-1,-1,-1,-1,31,33,35,37,39,-1,-1,-1,41,43,45,-1,-1,-1,47,49,51,-1,-1,-1,-1,-1,-1,-1,-1,-1,-1,-1,-1,-1],"loss_changes":[4.523724E1,7.3068333E0,7.4452515E0,1.9638314E0,1.3261013E0,3.036972E0,3.5588455E0,2.63653E0,0E0,8.0962944E-1,1.5209509E0,4.632831E0,1.801117E0,4.8704085E0,1.6143827E0,0E0,0E0,6.181736E-1,0E0,0E0,0E0,0E0,0E0,7.438965E-1,3.4679942E0,2.2795982E0,5.7420635E0,7.055993E-1,0E0,0E0,0E0,8.987732E-1,1.6832552E0,1.4632876E0,0E0,0E0,0E0,1.4237642E-2,2.7927818E0,2.2972012E-1,0E0,0E0,0E0,0E0,0E0,0E0,0E0,0E0,0E0,0E0,0E0,0E0,0E0],"parents":[2147483647,0,0,1,1,2,2,3,3,4,4,5,5,6,6,7,7,9,9,10,10,11,11,12,12,13,13,14,14,17,17,23,23,24,24,25,25,26,26,27,27,31,31,32,32,33,33,37,37,38,38,39,39],"right_children":[2,4,6,8,10,12,14,16,-1,18,20,22,24,26,28,-1,-1,30,-1,-1,-1,-1,-1,32,34,36,38,40,-1,-1,-1,42,44,46,-1,-1,-1,48,50,52,-1,-1,-1,-1,-1,-1,-1,-1,-1,-1,-1,-1,-1],"split_conditions":[-1.4281843E0,7.011188E-1,1.6407202E0,1.3673922E0,2.2680619E0,-7.520838E-1,-8.5545264E-2,-2.0605384E-1,6.0419638E-2,6.3738215E-1,1.0494768E-1,-5.0369483E-1,7.92192E-1,-2.2679628E-1,9.682917E-1,4.18774E-2,-8.345407E-2,1.8055528E0,1.1454008E-2,-3.6406394E-2,7.177694E-2,9.119831E-2,-7.6444104E-2,5.5974245E-1,7.4674374E-1,4.243069E0,-4.1164126E-2,4.712371E-1,3.2339096E-2,1.1083622E-1,2.0483276E-2,1.1545103E0,3.214921E-2,-9.4889003E-1,8.092864E-2,-8.404546E-2,4.557536E-2,3.8336465E-1,2.2368993E-1,1.5874406E0,-7.2846785E-3,-9.901267E-2,-2.8073955E-3,-9.3947634E-2,-3.530706E-2,2.5431518E-2,-8.508501E-2,-1.537237E-2,-6.016035E-2,1.482787E-1,-1.5333267E-2,-9.128969E-2,-1.7567245E-2],"split_indices":[10,4,4,7,17,20,20,17,0,6,28,22,20,17,23,0,0,27,0,0,0,0,0,17,22,4,5,26,0,0,0,26,18,10,0,0,0,6,23,13,0,0,0,0,0,0,0,0,0,0,0,0,0],"split_type":[0,0,0,0,0,0,0,0,0,0,0,0,0,0,0,0,0,0,0,0,0,0,0,0,0,0,0,0,0,0,0,0,0,0,0,0,0,0,0,0,0,0,0,0,0,0,0,0,0,0,0,0,0],"sum_hessian":[1.725308E2,2.8594233E1,1.4393657E2,7.3798513E0,2.1214382E1,1.2012136E2,2.381521E1,6.0733995E0,1.3064516E0,1.7871397E1,3.342985E0,4.7520533E0,1.1536931E2,1.2814627E1,1.1000584E1,1.7161152E0,4.3572845E0,1.6623043E1,1.2483537E0,1.6321901E0,1.7107949E0,1.8668672E0,2.885186E0,1.0821306E2,7.1562495E0,5.3999515E0,7.414675E0,9.954556E0,1.0460273E0,1.5291788E1,1.3312544E0,8.530361E1,2.2909447E1,5.9613295E0,1.1949203E0,4.2881255E0,1.111826E0,2.4160025E0,4.998673E0,8.400049E0,1.554508E0,8.426143E1,1.0421846E0,1.2030458E1,1.0878989E1,1.0126299E0,4.9486995E0,1.0024478E0,1.4135548E0,3.8950338E0,1.103639E0,7.3788066E0,1.0212421E0],"tree_param":{"num_deleted":"0","num_feature":"32","num_nodes":"53","size_leaf_vector":"1"}},{"base_weights":[-4.768285E-1,-7.6035917E-1,4.5539907E-1,-2.7424686E-2,-8.312281E-1,-3.3642656E-1,8.327024E-1,-5.942074E-1,3.6280096E-1,-9.272042E-1,-5.025214E-1,2.7277428E-1,-7.156929E-1,1.0354204E0,4.664014E-1,-3.9905445E-3,-7.6754235E-2,-4.394042E-2,6.8581593E-1,-9.6918046E-1,-3.238345E-1,-4.016615E-2,-8.880581E-1,9.788426E-2,-2.3348592E-1,1.3955496E-2,-8.856893E-2,3.928787E-2,1.0962981E-1,-1.4709303E-1,9.0896225E-1,1.2192433E-1,1.7096475E-1,-4.931867E-1,-9.86889E-2,-8.0783546E-2,4.3730932E-1,5.608901E-1,-8.553543E-2,-9.429688E-2,-3.7211365E-1,-6.783078E-2,4.3536164E-2,5.2670395E-1,-7.351325E-2,-9.300606E-3,1.1563615E0,6.1868858E-2,-5.3790797E-2,2.6035814E-2,-7.53741E-2,1.4367302E-1,-5.93881E-2,-1.5038329E-2,1.853071E-1,-5.3794928E-2,-1.0816221E-3,7.40149E-3,7.364958E-2,1.3788055E-1,1.7175974E-2],"categories":[],"categories_nodes":[],"categories_segments":[],"categories_sizes":[],"default_left":[0,0,0,0,0,0,0,0,0,0,0,0,0,0,0,0,0,0,0,0,0,0,0,0,0,0,0,0,0,0,0,0,0,0,0,0,0,0,0,0,0,0,0,0,0,0,0,0,0,0,0,0,0,0,0,0,0,0,0,0,0],"id":25,"left_children":[1,3,5,7,9,11,13,15,17,19,21,23,25,27,29,-1,-1,-1,31,33,35,37,39,-1,41,-1,-1,-1,-1,43,45,-1,47,49,-1,-1,51,53,-1,-1,55,-1,-1,57,-1,-1,59,-1,-1,-1,-1,-1,-1,-1,-1,-1,-1,-1,-1,-1,-1],"loss_changes":[4.3564472E1,6.5090485E0,1.1859461E1,2.896484E0,3.1504288E0,3.249771E0,1.4876633E0,4.80672E-1,2.3224335E0,1.903328E0,4.971375E0,2.300555E0,1.3483257E0,2.0547104E-1,3.1946845E0,0E0,0E0,0E0,1.4259467E0,1.9895935E-1,3.0042028E0,7.2509837E0,8.171272E-2,0E0,1.5399367E0,0E0,0E0,0E0,0E0,2.6001995E0,1.7655792E0,0E0,1.663057E0,1.1615909E0,0E0,0E0,4.4045787E0,8.144716E0,0E0,0E0,1.8115804E-1,0E0,0E0,2.4801135E-1,0E0,0E0,9.54339E-1,0E0,0E0,0E0,0E0,0E0,0E0,0E0,0E0,0E0,0E0,0E0,0E0,0E0,0E0],"parents":[2147483647,0,0,1,1,2,2,3,3,4,4,5,5,6,6,7,7,8,8,9,9,10,10,11,11,12,12,13,13,14,14,18,18,19,19,20,20,21,21,22,22,24,24,29,29,30,30,32,32,33,33,36,36,37,37,40,40,43,43,46,46],"right_children":[2,4,6,8,10,12,14,16,18,20,22,24,26,28,30,-1,-1,-1,32,34,36,38,40,-1,42,-1,-1,-1,-1,44,46,-1,48,50,-1,-1,52,54,-1,-1,56,-1,-1,58,-1,-1,60,-1,-1,-1,-1,-1,-1,-1,-1,-1,-1,-1,-1,-1,-1],"split_conditions":[1.941409E0,-1.4281843E0,4.6676746E-1,-4.9084958E-1,5.35848E-1,9.51E0,-1.2612989E0,-2.0605384E-1,-3.7952382E-2,2.7946E2,-1.9802597E-1,-8.4394354E-1,-5.1086867E-1,-9.501728E-1,1.9359462E-1,-3.9905445E-3,-7.6754235E-2,-4.394042E-2,-2.0698777E-1,-1.0295928E0,4.4231686E-1,1.618537E-1,8.9550716E-1,9.788426E-2,3.7029104E0,1.3955496E-2,-8.856893E-2,3.928787E-2,1.0962981E-1,-3.5188675E-1,-1.5301006E-1,1.2192433E-1,-1.5809257E0,-7.6027507E-1,-9.86889E-2,-8.0783546E-2,8.3332425E-1,-4.3040324E-2,-8.553543E-2,-9.429688E-2,6.806517E-2,-6.783078E-2,4.3536164E-2,-4.6978673E-1,-7.351325E-2,-9.300606E-3,1.3384074E0,6.1868858E-2,-5.3790797E-2,2.6035814E-2,-7.53741E-2,1.4367302E-1,-5.93881E-2,-1.5038329E-2,1.853071E-1,-5.3794928E-2,-1.0816221E-3,7.40149E-3,7.364958E-2,1.3788055E-1,1.7175974E-2],"split_indices":[4,10,11,4,17,29,17,17,21,29,13,12,6,22,31,0,0,0,8,10,18,8,12,0,4,0,0,0,0,10,23,0,16,13,0,0,18,8,0,0,23,0,0,9,0,0,2,0,0,0,0,0,0,0,0,0,0,0,0,0,0],"split_type":[0,0,0,0,0,0,0,0,0,0,0,0,0,0,0,0,0,0,0,0,0,0,0,0,0,0,0,0,0,0,0,0,0,0,0,0,0,0,0,0,0,0,0,0,0,0,0,0,0,0,0,0,0,0,0,0,0,0,0,0,0],"sum_hessian":[1.6251016E2,1.2475204E2,3.775812E1,1.1121293E1,1.13630745E2,1.222033E1,2.553779E1,4.3216257E0,6.799668E0,8.6541504E1,2.7089245E1,4.79657E0,7.4237604E0,1.5263812E1,1.0273978E1,1.3225402E0,2.9990857E0,1.8485317E0,4.951136E0,8.03456E1,6.195901E0,1.281956E1,1.4269685E1,1.6132013E0,3.1833687E0,1.2606305E0,6.16313E0,1.9660846E0,1.3297728E1,4.5852985E0,5.6886797E0,1.759748E0,3.191388E0,3.9167337E0,7.642886E1,3.7499897E0,2.4459112E0,7.558478E0,5.2610826E0,1.2149038E1,2.1206462E0,1.9033729E0,1.2799958E0,2.1854432E0,2.3998554E0,1.2500467E0,4.438633E0,2.0339608E0,1.1574273E0,1.0065268E0,2.910207E0,1.0423759E0,1.4035352E0,5.444955E0,2.1135228E0,1.1183743E0,1.0022719E0,1.1204773E0,1.0649658E0,3.2940612E0,1.1445718E0],"tree_param":{"num_deleted":"0","num_feature":"32","num_nodes":"61","size_leaf_vector":"1"}},{"base_weights":[-4.7412655E-1,-7.7273756E-1,3.6490476E-1,3.3536542E-2,-8.389188E-1,-6.107193E-1,7.324324E-1,-4.1477472E-1,5.058887E-1,-9.941398E-2,-6.604661E-1,-7.422887E-1,3.867167E-2,8.836981E-1,3.133885E-2,-6.275678E-1,2.3332162E-2,9.916177E-1,-5.0817262E-2,-7.591367E-1,2.6307628E-1,4.3552895E-3,-9.090819E-2,1.0503353E0,1.7191768E-1,6.6699576E-1,-7.26066E-2,-1.5505144E-2,-7.2278164E-2,-1.3246576E-2,1.4762697E-1,-8.832629E-1,-1.9463742E-1,1.3716167E-1,-3.4449628E-1,1.1330515E0,3.4622064E-1,7.5888E-2,-3.4169567E-1,-1.554115E-2,1.19353235E-1,-9.7681746E-2,-5.1992394E-2,-6.9306776E-2,5.4219764E-2,4.7428813E-2,-7.227028E-2,1.1692983E-1,2.803791E-2,-1.0179947E-2,5.7006348E-2,-7.70357E-2,4.3212224E-2],"categories":[],"categories_nodes":[],"categories_segments":[],"categories_sizes":[],"default_left":[0,0,0,0,0,0,0,0,0,0,0,0,0,0,0,0,0,0,0,0,0,0,0,0,0,0,0,0,0,0,0,0,0,0,0,0,0,0,0,0,0,0,0,0,0,0,0,0,0,0,0,0,0],"id":26,"left_children":[1,3,5,7,9,11,13,15,17,-1,19,21,-1,23,25,27,-1,29,-1,31,33,-1,-1,35,37,39,-1,-1,-1,-1,-1,41,43,-1,45,47,49,-1,51,-1,-1,-1,-1,-1,-1,-1,-1,-1,-1,-1,-1,-1,-1],"loss_changes":[3.8356197E1,6.0257416E0,1.4993621E1,2.2189515E0,2.221695E0,1.8153677E0,3.1455555E0,8.935141E-1,3.0014277E0,0E0,4.876087E0,1.4330626E0,0E0,2.7342396E0,3.5399964E0,8.360314E-2,0E0,2.247867E0,0E0,3.0947971E0,4.308966E0,0E0,0E0,7.560787E-1,2.0252101E0,1.9054736E0,0E0,0E0,0E0,0E0,0E0,7.816181E-1,3.9331553E0,0E0,1.7296958E0,2.0388794E-1,4.1031843E-1,0E0,1.5978582E0,0E0,0E0,0E0,0E0,0E0,0E0,0E0,0E0,0E0,0E0,0E0,0E0,0E0,0E0],"parents":[2147483647,0,0,1,1,2,2,3,3,4,4,5,5,6,6,7,7,8,8,10,10,11,11,13,13,14,14,15,15,17,17,19,19,20,20,23,23,24,24,25,25,31,31,32,32,34,34,35,35,36,36,38,38],"right_children":[2,4,6,8,10,12,14,16,18,-1,20,22,-1,24,26,28,-1,30,-1,32,34,-1,-1,36,38,40,-1,-1,-1,-1,-1,42,44,-1,46,48,50,-1,52,-1,-1,-1,-1,-1,-1,-1,-1,-1,-1,-1,-1,-1,-1],"split_conditions":[1.6407202E0,-1.467433E0,1.3157348E-1,-1.04318514E-1,-2.2527166E-2,1.3047637E0,-1.5513177E-1,-3.726871E-1,3.8717964E-1,-9.941398E-2,3.2207125E-1,-1.6295288E0,3.867167E-2,1.1452897E0,1.263E1,-1.0032326E0,2.3332162E-2,-2.1880221E-1,-5.0817262E-2,4.4848585E-1,-6.067018E-1,4.3552895E-3,-9.090819E-2,6.650774E-1,-1.8749433E0,4.12983E-1,-7.26066E-2,-1.5505144E-2,-7.2278164E-2,-1.3246576E-2,1.4762697E-1,6.5365463E-1,1.2010886E-1,1.3716167E-1,-3.8463247E-1,2.2680619E0,-1.336051E-1,7.5888E-2,3.285994E-1,-1.554115E-2,1.19353235E-1,-9.7681746E-2,-5.1992394E-2,-6.9306776E-2,5.4219764E-2,4.7428813E-2,-7.227028E-2,1.1692983E-1,2.803791E-2,-1.0179947E-2,5.7006348E-2,-7.70357E-2,4.3212224E-2],"split_indices":[4,10,11,19,4,15,12,1,18,0,21,19,0,5,29,6,0,2,0,25,12,0,0,25,10,6,0,0,0,0,0,17,16,0,26,17,15,0,26,0,0,0,0,0,0,0,0,0,0,0,0,0,0],"split_type":[0,0,0,0,0,0,0,0,0,0,0,0,0,0,0,0,0,0,0,0,0,0,0,0,0,0,0,0,0,0,0,0,0,0,0,0,0,0,0,0,0,0,0,0,0,0,0,0,0,0,0,0,0],"sum_hessian":[1.5096619E2,1.113985E2,3.9567688E1,8.487694E0,1.02910805E2,1.0645877E1,2.8921812E1,4.417204E0,4.07049E0,5.259338E1,5.031743E1,9.631246E0,1.0146313E0,2.357491E1,5.346903E0,3.349213E0,1.0679908E0,2.767167E0,1.303323E0,4.56213E1,4.696129E0,1.8156657E0,7.8155804E0,1.8717297E1,4.857612E0,2.9719996E0,2.3749032E0,1.0025126E0,2.3467004E0,1.0525653E0,1.7146016E0,3.6935066E1,8.686235E0,1.2173992E0,3.4787295E0,1.6204485E1,2.512813E0,2.044083E0,2.8135293E0,1.4351907E0,1.5368088E0,2.8029442E1,8.905623E0,5.216766E0,3.4694693E0,1.0188854E0,2.459844E0,1.5187532E1,1.0169518E0,1.0188366E0,1.4939766E0,1.813437E0,1.0000924E0],"tree_param":{"num_deleted":"0","num_feature":"32","num_nodes":"53","size_leaf_vector":"1"}},{"base_weights":[-4.3177968E-1,4.2678088E-1,-7.033068E-1,-1.550644E-2,8.2676685E-1,-8.896478E-1,-3.0774078E-1,-4.460958E-1,5.098901E-1,9.8769575E-1,-2.2322644E-1,-9.237267E-1,-3.5130158E-1,4.5920542E-1,-5.4494935E-1,-7.791105E-1,5.5874264E-1,7.836801E-1,-1.6966231E-1,1.31049445E-2,1.0573332E0,-5.8289915E-2,2.9319106E-2,-9.370494E-1,-1.1575468E-3,4.6205E-2,-7.815502E-2,1.0504175E0,-1.5675434E-1,3.9749045E-2,-9.0120995E-1,-3.3191517E-3,-8.822677E-2,-4.876525E-2,1.3833557E-1,1.00288264E-1,-1.1780713E-2,-6.5172665E-2,4.2990398E-2,1.108795E-1,1.809895E-2,-9.5068026E-1,-7.0092096E-3,1.4879923E0,-1.5956698E-2,7.009729E-2,-7.483408E-2,1.1592504E-1,-3.0529243E-1,-1.1566359E-3,-9.5389955E-2,-9.640401E-2,-3.912125E-2,1.2413436E-2,2.2534107E-1,3.5343584E-2,-7.029312E-2],"categories":[],"categories_nodes":[],"categories_segments":[],"categories_sizes":[],"default_left":[0,0,0,0,0,0,0,0,0,0,0,0,0,0,0,0,0,0,0,0,0,0,0,0,0,0,0,0,0,0,0,0,0,0,0,0,0,0,0,0,0,0,0,0,0,0,0,0,0,0,0,0,0,0,0,0,0],"id":27,"left_children":[1,3,5,7,9,11,13,15,17,19,21,23,25,27,29,31,33,35,37,-1,39,-1,-1,41,-1,-1,-1,43,45,47,49,-1,-1,-1,-1,-1,-1,-1,-1,-1,-1,51,-1,53,-1,-1,-1,-1,55,-1,-1,-1,-1,-1,-1,-1,-1],"loss_changes":[3.3734764E1,6.219165E0,7.785591E0,4.218548E0,3.336442E0,1.0293846E0,6.8981504E0,3.8582144E0,1.698185E0,8.2629967E-1,7.775973E-1,8.251076E-1,2.463276E0,3.5057979E0,5.9447927E0,5.940223E-1,3.3741195E0,1.3383045E0,1.2160797E0,0E0,4.6752548E-1,0E0,0E0,7.344246E-1,0E0,0E0,0E0,2.784831E0,3.2461274E0,4.8725014E0,8.172016E-1,0E0,0E0,0E0,0E0,0E0,0E0,0E0,0E0,0E0,0E0,1.2108612E-1,0E0,3.5100613E0,0E0,0E0,0E0,0E0,2.7979786E0,0E0,0E0,0E0,0E0,0E0,0E0,0E0,0E0],"parents":[2147483647,0,0,1,1,2,2,3,3,4,4,5,5,6,6,7,7,8,8,9,9,10,10,11,11,12,12,13,13,14,14,15,15,16,16,17,17,18,18,20,20,23,23,27,27,28,28,29,29,30,30,41,41,43,43,48,48],"right_children":[2,4,6,8,10,12,14,16,18,20,22,24,26,28,30,32,34,36,38,-1,40,-1,-1,42,-1,-1,-1,44,46,48,50,-1,-1,-1,-1,-1,-1,-1,-1,-1,-1,52,-1,54,-1,-1,-1,-1,56,-1,-1,-1,-1,-1,-1,-1,-1],"split_conditions":[-1.3464084E0,1.07917696E-1,7.503356E-1,1.941409E0,-3.1664702E-1,3.4136E2,3.9E0,1.049E2,-4.280826E-2,9.431631E-2,1.103755E-1,6.9548583E-1,-5.0722367E-1,-8.049855E-2,-2.1638866E-1,-1.6712307E0,-1.0554553E0,1.479361E0,1.7901276E0,1.31049445E-2,5.954805E-1,-5.8289915E-2,2.9319106E-2,3.6955419E0,-1.1575468E-3,4.6205E-2,-7.815502E-2,1.7280583E-1,-7.6001537E-1,-2.6901063E-1,-5.687288E-1,-3.3191517E-3,-8.822677E-2,-4.876525E-2,1.3833557E-1,1.00288264E-1,-1.1780713E-2,-6.5172665E-2,4.2990398E-2,1.108795E-1,1.809895E-2,1.3594661E0,-7.0092096E-3,1.0662066E0,-1.5956698E-2,7.009729E-2,-7.483408E-2,1.1592504E-1,2.1404164E-2,-1.1566359E-3,-9.5389955E-2,-9.640401E-2,-3.912125E-2,1.2413436E-2,2.2534107E-1,3.5343584E-2,-7.029312E-2],"split_indices":[14,21,4,4,12,29,29,29,10,31,20,27,13,22,12,10,1,16,1,0,24,0,0,30,0,0,0,24,9,27,20,0,0,0,0,0,0,0,0,0,0,12,0,1,0,0,0,0,14,0,0,0,0,0,0,0,0],"split_type":[0,0,0,0,0,0,0,0,0,0,0,0,0,0,0,0,0,0,0,0,0,0,0,0,0,0,0,0,0,0,0,0,0,0,0,0,0,0,0,0,0,0,0,0,0,0,0,0,0,0,0,0,0,0,0,0,0],"sum_hessian":[1.4242078E2,3.408218E1,1.083386E2,1.6641716E1,1.7440462E1,7.279683E1,3.554177E1,9.229007E0,7.412709E0,1.5174109E1,2.266353E0,6.778969E1,5.0071445E0,8.174851E0,2.7366917E1,7.100472E0,2.128535E0,5.174632E0,2.2380767E0,1.3574394E0,1.381667E1,1.2600331E0,1.0063198E0,6.678691E1,1.0027736E0,1.7067509E0,3.3003938E0,3.8113234E0,4.3635283E0,1.0697879E1,1.6669039E1,1.0232456E0,6.077226E0,1.1182091E0,1.0103258E0,4.0720186E0,1.1026134E0,1.1923802E0,1.0456966E0,1.2799775E1,1.0168957E0,6.565803E1,1.1288869E0,2.630336E0,1.1809874E0,1.7056471E0,2.6578813E0,1.9644377E0,8.733441E0,1.0002198E0,1.5668818E1,6.342044E1,2.2375836E0,1.3633084E0,1.2670276E0,3.329295E0,5.404146E0],"tree_param":{"num_deleted":"0","num_feature":"32","num_nodes":"57","size_leaf_vector":"1"}},{"base_weights":[-4.414361E-1,-8.5253423E-1,1.0102374E-1,-1.20461844E-1,-8.8883716E-1,6.259403E-1,-4.3279782E-1,-6.546974E-2,4.329903E-2,-1.8109217E-1,-9.3609965E-1,8.7448025E-1,-6.5236695E-2,3.8221523E-1,-5.9396946E-1,-6.819384E-2,3.4728706E-1,-5.0805503E-1,-9.931677E-2,6.1427534E-1,1.3759205E0,7.803961E-1,-6.291932E-1,-6.0079314E-2,8.772345E-1,2.2602972E-1,-8.3915436E-1,7.71622E-2,-1.4194794E-2,-7.725304E-1,5.9230536E-2,8.079721E-1,-6.469205E-2,7.9122625E-2,2.1046332E-1,1.24504946E-1,1.1738378E-2,1.4382568E-2,-8.214721E-2,1.05928086E-1,1.9930987E-2,-6.2900715E-2,6.1928535E-1,-9.054014E-1,1.8578514E-2,-8.7455206E-2,-7.222734E-4,1.0073204E-1,2.0863455E-2,1.191703E-1,-5.936576E-2,-8.769162E-4,-9.567108E-2],"categories":[],"categories_nodes":[],"categories_segments":[],"categories_sizes":[],"default_left":[0,0,0,0,0,0,0,0,0,0,0,0,0,0,0,0,0,0,0,0,0,0,0,0,0,0,0,0,0,0,0,0,0,0,0,0,0,0,0,0,0,0,0,0,0,0,0,0,0,0,0,0,0],"id":28,"left_children":[1,3,5,7,9,11,13,-1,-1,15,17,19,21,23,25,-1,27,29,-1,31,33,35,37,-1,39,41,43,-1,-1,45,-1,47,-1,-1,-1,-1,-1,-1,-1,-1,-1,-1,49,51,-1,-1,-1,-1,-1,-1,-1,-1,-1],"loss_changes":[2.9615797E1,1.8977242E0,1.6518127E1,1.679304E0,2.2293243E0,5.149375E0,4.080819E0,0E0,0E0,1.7529613E0,1.1317253E0,2.0087013E0,4.6738286E0,3.1801827E0,5.193042E0,0E0,8.2585216E-1,3.3466282E0,0E0,4.4818363E0,1.1749678E0,1.0724103E0,9.825189E-1,0E0,2.8656793E-1,2.5805552E0,1.4834127E0,0E0,0E0,6.524782E-1,0E0,1.5215063E0,0E0,0E0,0E0,0E0,0E0,0E0,0E0,0E0,0E0,0E0,4.1562285E0,8.364687E-1,0E0,0E0,0E0,0E0,0E0,0E0,0E0,0E0,0E0],"parents":[2147483647,0,0,1,1,2,2,3,3,4,4,5,5,6,6,9,9,10,10,11,11,12,12,13,13,14,14,16,16,17,17,19,19,20,20,21,21,22,22,24,24,25,25,26,26,29,29,31,31,42,42,43,43],"right_children":[2,4,6,8,10,12,14,-1,-1,16,18,20,22,24,26,-1,28,30,-1,32,34,36,38,-1,40,42,44,-1,-1,46,-1,48,-1,-1,-1,-1,-1,-1,-1,-1,-1,-1,50,52,-1,-1,-1,-1,-1,-1,-1,-1,-1],"split_conditions":[7.503356E-1,-6.2520134E-1,-4.4895285E-1,-5.748496E-1,-1.7189388E0,-4.280826E-2,-1.9707687E0,-6.546974E-2,4.329903E-2,1.995E1,-4.9756238E-1,4.3048695E-1,-3.879661E-1,-1.3225838E-2,2.5E0,-6.819384E-2,-1.9220498E-1,1.0634155E0,-9.931677E-2,-3.2878175E-1,2.0903286E-1,-2.8331366E-1,-7.297126E-1,-6.0079314E-2,9.552496E-1,-1.6610877E-1,1.5782613E0,7.71622E-2,-1.4194794E-2,6.2120336E-1,5.9230536E-2,6.1115067E-2,-6.469205E-2,7.9122625E-2,2.1046332E-1,1.24504946E-1,1.1738378E-2,1.4382568E-2,-8.214721E-2,1.05928086E-1,1.9930987E-2,-6.2900715E-2,1.3194953E0,-1.3022237E0,1.8578514E-2,-8.7455206E-2,-7.222734E-4,1.0073204E-1,2.0863455E-2,1.191703E-1,-5.936576E-2,-8.769162E-4,-9.567108E-2],"split_indices":[4,21,12,4,14,10,3,0,0,29,26,22,8,28,29,0,25,7,0,14,7,15,7,0,2,20,16,0,0,22,0,7,0,0,0,0,0,0,0,0,0,0,2,16,0,0,0,0,0,0,0,0,0],"split_type":[0,0,0,0,0,0,0,0,0,0,0,0,0,0,0,0,0,0,0,0,0,0,0,0,0,0,0,0,0,0,0,0,0,0,0,0,0,0,0,0,0,0,0,0,0,0,0,0,0,0,0,0,0],"sum_hessian":[1.3141753E2,7.44356E1,5.6981926E1,3.7208312E0,7.0714775E1,2.864359E1,2.8338335E1,1.800201E0,1.92063E0,4.7291107E0,6.5985664E1,2.0872763E1,7.7708287E0,4.452326E0,2.3886011E1,2.2786114E0,2.4504993E0,8.927399E0,5.705826E1,1.5206766E1,5.6659975E0,2.9554493E0,4.815379E0,1.4196035E0,3.0327222E0,5.5160832E0,1.8369926E1,1.0031886E0,1.4473107E0,7.437661E0,1.4897377E0,1.3493734E1,1.7130315E0,4.300893E0,1.3651046E0,1.2215165E0,1.733933E0,1.0093768E0,3.8060024E0,1.9472759E0,1.0854464E0,1.5488993E0,3.967184E0,1.7364218E1,1.0057087E0,6.4368343E0,1.0008268E0,9.614942E0,3.8787925E0,2.7071328E0,1.2600513E0,1.0032542E0,1.6360964E1],"tree_param":{"num_deleted":"0","num_feature":"32","num_nodes":"53","size_leaf_vector":"1"}},{"base_weights":[-4.232739E-1,5.5078214E-1,-6.3279194E-1,-1.6246873E-1,8.3622086E-1,-7.652492E-1,4.459613E-2,2.5716227E-1,-7.218369E-2,9.6046376E-1,1.8870771E-1,-9.3706197E-1,-5.945746E-1,6.076099E-1,-3.9568308E-1,-6.3361086E-2,8.9608E-1,2.1984227E-2,1.0334188E-1,-2.3035714E-2,5.036478E-2,-1.0362609E-3,-9.600294E-1,4.2854235E-1,-6.711469E-1,1.1473337E0,4.150049E-2,-6.4791155E-1,2.8721014E-1,2.475579E-3,1.2832145E-1,-9.836568E-2,-5.631139E-3,1.4873447E-1,-6.298303E-2,2.8502584E-1,-7.5415266E-1,1.9351196E-2,1.4800009E-1,7.395301E-2,-6.331472E-2,2.0127352E-3,-8.741995E-2,8.784185E-2,-5.3862836E-2,1.2497311E-1,-6.580915E-2,-8.994154E-2,-4.1411653E-2],"categories":[],"categories_nodes":[],"categories_segments":[],"categories_sizes":[],"default_left":[0,0,0,0,0,0,0,0,0,0,0,0,0,0,0,0,0,0,0,0,0,0,0,0,0,0,0,0,0,0,0,0,0,0,0,0,0,0,0,0,0,0,0,0,0,0,0,0,0],"id":29,"left_children":[1,3,5,7,9,11,13,15,-1,17,19,21,23,25,27,-1,29,-1,-1,-1,-1,-1,31,33,35,37,39,41,43,-1,-1,-1,-1,-1,-1,45,47,-1,-1,-1,-1,-1,-1,-1,-1,-1,-1,-1,-1],"loss_changes":[2.5604218E1,4.7047095E0,9.21397E0,1.8877358E0,1.1212282E0,1.9539375E0,4.6226954E0,3.3454258E0,0E0,4.935522E-1,6.24264E-1,8.6136246E-1,3.8674278E0,2.4433024E0,1.9991981E0,0E0,1.0666308E0,0E0,0E0,0E0,0E0,0E0,7.9735565E-1,5.1861734E0,3.6200237E0,1.0259604E0,2.830615E0,1.2260768E0,2.197669E0,0E0,0E0,0E0,0E0,0E0,0E0,4.6006026E0,1.5909595E0,0E0,0E0,0E0,0E0,0E0,0E0,0E0,0E0,0E0,0E0,0E0,0E0],"parents":[2147483647,0,0,1,1,2,2,3,3,4,4,5,5,6,6,7,7,9,9,10,10,11,11,12,12,13,13,14,14,16,16,22,22,23,23,24,24,25,25,26,26,27,27,28,28,35,35,36,36],"right_children":[2,4,6,8,10,12,14,16,-1,18,20,22,24,26,28,-1,30,-1,-1,-1,-1,-1,32,34,36,38,40,42,44,-1,-1,-1,-1,-1,-1,46,48,-1,-1,-1,-1,-1,-1,-1,-1,-1,-1,-1,-1],"split_conditions":[-1.4281843E0,7.011188E-1,2.4060123E0,1.4767952E-1,5.1490736E-1,-2.2527166E-2,-1.1474161E-1,-7.551857E-2,-7.218369E-2,2.5315E4,9.976009E-2,-9.7163254E-1,-5.687288E-1,-1.3360547E-1,9.0204084E-1,-6.3361086E-2,-3.5770103E-2,2.1984227E-2,1.0334188E-1,-2.3035714E-2,5.036478E-2,-1.0362609E-3,1.8012413E0,-5.0369483E-1,-9.795789E-1,-7.127027E-2,-2.6888307E-2,4.596303E-2,1.1072471E0,2.475579E-3,1.2832145E-1,-9.836568E-2,-5.631139E-3,1.4873447E-1,-6.298303E-2,5.1856047E-1,4.0933952E-1,1.9351196E-2,1.4800009E-1,7.395301E-2,-6.331472E-2,2.0127352E-3,-8.741995E-2,8.784185E-2,-5.3862836E-2,1.2497311E-1,-6.580915E-2,-8.994154E-2,-4.1411653E-2],"split_indices":[10,4,4,16,16,4,8,2,0,0,28,21,20,13,30,0,20,0,0,0,0,0,16,22,10,22,26,10,30,0,0,0,0,0,0,4,2,0,0,0,0,0,0,0,0,0,0,0,0],"split_type":[0,0,0,0,0,0,0,0,0,0,0,0,0,0,0,0,0,0,0,0,0,0,0,0,0,0,0,0,0,0,0,0,0,0,0,0,0,0,0,0,0,0,0,0,0,0,0,0,0],"sum_hessian":[1.2275245E2,2.1441486E1,1.0131097E2,6.251393E0,1.5190094E1,8.463219E1,1.6678782E1,3.88053E0,2.3708625E0,1.2339178E1,2.8509157E0,3.9937748E1,4.4694435E1,7.1524363E0,9.526344E0,1.6242801E0,2.2562501E0,1.4663675E0,1.0872811E1,1.3384796E0,1.5124362E0,1.000979E0,3.893677E1,2.7920496E0,4.1902386E1,3.1359499E0,4.016486E0,6.9942317E0,2.5321128E0,1.0213785E0,1.2348716E0,3.785852E1,1.0782509E0,1.1931262E0,1.5989233E0,3.1526048E0,3.874978E1,1.2199146E0,1.9160353E0,1.9267681E0,2.0897183E0,2.0002432E0,4.9939885E0,1.4385806E0,1.0935322E0,1.3977517E0,1.7548531E0,2.5998304E1,1.2751475E1],"tree_param":{"num_deleted":"0","num_feature":"32","num_nodes":"49","size_leaf_vector":"1"}},{"base_weights":[-4.0818337E-1,2.4422275E-1,-7.543606E-1,7.714766E-1,-5.5680502E-2,1.3724393E-1,-8.117395E-1,8.688251E-1,9.5785037E-4,1.01663336E-1,-8.10804E-2,1.18162714E-1,-7.401228E-2,-8.766932E-1,-1.2844175E-1,9.755297E-2,2.2333132E-1,2.6424167E-1,-7.200726E-2,-8.9938885E-1,2.2071166E-2,9.0438515E-2,-5.307589E-1,5.6932237E-2,-2.6247442E-2,4.7221664E-1,-4.9529728E-1,-4.7459117E-1,-9.608299E-1,-8.050146E-2,2.9740402E-2,2.3218662E-2,1.7812775E-1,-7.4293375E-2,1.40348105E-2,-7.088278E-2,4.183857E-2,-9.7272135E-2,-1.9223437E-2],"categories":[],"categories_nodes":[],"categories_segments":[],"categories_sizes":[],"default_left":[0,0,0,0,0,0,0,0,0,0,0,0,0,0,0,0,0,0,0,0,0,0,0,0,0,0,0,0,0,0,0,0,0,0,0,0,0,0,0],"id":30,"left_children":[1,3,5,7,9,11,13,15,-1,17,-1,-1,-1,19,21,-1,23,25,-1,27,-1,-1,29,-1,-1,31,33,35,37,-1,-1,-1,-1,-1,-1,-1,-1,-1,-1],"loss_changes":[2.6904102E1,6.647753E0,4.078274E0,1.1199236E0,3.3566728E0,5.9542785E0,3.1271553E0,7.1040154E-1,0E0,3.3557498E0,0E0,0E0,0E0,1.8544693E0,3.599861E0,0E0,6.887702E-1,3.4741135E0,0E0,1.2493095E0,0E0,0E0,1.609817E0,0E0,0E0,4.8070545E0,8.751571E-1,2.4367878E0,3.2579422E-1,0E0,0E0,0E0,0E0,0E0,0E0,0E0,0E0,0E0,0E0],"parents":[2147483647,0,0,1,1,2,2,3,3,4,4,5,5,6,6,7,7,9,9,13,13,14,14,16,16,17,17,19,19,22,22,25,25,26,26,27,27,28,28],"right_children":[2,4,6,8,10,12,14,16,-1,18,-1,-1,-1,20,22,-1,24,26,-1,28,-1,-1,30,-1,-1,32,34,36,38,-1,-1,-1,-1,-1,-1,-1,-1,-1,-1],"split_conditions":[-8.130821E-1,-3.5017025E0,-1.5045385E0,7.716435E-1,1.2220174E0,7.128727E-2,1.2933103E0,9.5669293E-1,9.5785037E-4,1.4984087E0,-8.10804E-2,1.18162714E-1,-7.401228E-2,4.698405E0,-1.1977733E0,9.755297E-2,-2.9980445E0,4.6156046E-1,-7.200726E-2,1.78E0,2.2071166E-2,9.0438515E-2,7.4936557E-1,5.6932237E-2,-2.6247442E-2,3.4956738E-1,4.1634652E-1,9.330227E-1,1.6884737E0,-8.050146E-2,2.9740402E-2,2.3218662E-2,1.7812775E-1,-7.4293375E-2,1.40348105E-2,-7.088278E-2,4.183857E-2,-9.7272135E-2,-1.9223437E-2],"split_indices":[14,14,19,7,3,6,7,13,0,2,0,0,0,5,13,0,9,24,0,29,0,0,19,0,0,24,19,15,17,0,0,0,0,0,0,0,0,0,0],"split_type":[0,0,0,0,0,0,0,0,0,0,0,0,0,0,0,0,0,0,0,0,0,0,0,0,0,0,0,0,0,0,0,0,0,0,0,0,0,0,0],"sum_hessian":[1.1730902E2,4.076942E1,7.65396E1,1.42116995E1,2.655772E1,4.5436974E0,7.19959E1,1.247714E1,1.7345597E0,2.2694313E1,3.8634079E0,1.9160808E0,2.6276166E0,6.548767E1,6.5082316E0,1.0268409E1,2.208731E0,1.9512291E1,3.1820216E0,6.433753E1,1.1501398E0,1.4746292E0,5.0336027E0,1.1895905E0,1.0191404E0,1.5614936E1,3.8973558E0,9.232088E0,5.5105442E1,3.8023589E0,1.2312437E0,1.4190354E1,1.4245813E0,2.6832294E0,1.2141263E0,7.4770136E0,1.755075E0,5.4004326E1,1.1011161E0],"tree_param":{"num_deleted":"0","num_feature":"32","num_nodes":"39","size_leaf_vector":"1"}},{"base_weights":[-3.7284127E-1,-6.545736E-1,3.5054937E-1,-2.8587466E-1,-8.5541815E-1,8.74609E-1,-1.01010576E-1,-6.967225E-1,8.4277704E-2,-9.459127E-1,2.897509E-2,1.0322556E0,-9.90655E-3,4.1099557E-1,-4.9710062E-1,2.8485212E-2,-8.561176E-1,4.224085E-1,-7.747741E-2,-9.66293E-1,-9.917493E-4,-5.693216E-1,1.2120589E-1,1.1139306E0,4.5161343E-1,-4.0845584E-2,6.8396384E-1,-7.165882E-1,4.6892177E-2,-9.2845105E-2,-3.2955545E-3,1.0684758E0,-2.2195832E-1,-9.850554E-2,-7.642118E-3,-1.133214E-3,-7.276806E-2,3.3273272E-2,1.1884135E-1,6.90877E-2,-2.098102E-3,9.489698E-1,-2.3172513E-2,2.3615053E-2,-8.8961326E-2,-2.6061356E-2,2.0974007E-1,4.8184257E-2,-7.803174E-2,1.0800018E-1,3.2374125E-2],"categories":[],"categories_nodes":[],"categories_segments":[],"categories_sizes":[],"default_left":[0,0,0,0,0,0,0,0,0,0,0,0,0,0,0,0,0,0,0,0,0,0,0,0,0,0,0,0,0,0,0,0,0,0,0,0,0,0,0,0,0,0,0,0,0,0,0,0,0,0,0],"id":31,"left_children":[1,3,5,7,9,11,13,15,17,19,21,23,-1,25,27,-1,29,31,-1,33,-1,35,-1,37,39,-1,41,43,-1,-1,-1,45,47,-1,-1,-1,-1,-1,-1,-1,-1,49,-1,-1,-1,-1,-1,-1,-1,-1,-1],"loss_changes":[2.2778673E1,5.6779633E0,7.5814314E0,